tree
version=v4
num_class=1
num_tree_per_iteration=1
label_index=0
max_feature_idx=40
objective=regression
feature_names=calendar_event_count city cluster day_of_month day_of_week dcoilwtico dcoilwtico_missing_before_imputation dcoilwtico_was_imputed family has_non_transferred_event has_transferred_event holiday_locale_local holiday_locale_national holiday_locale_regional holiday_type_additional holiday_type_bridge holiday_type_event holiday_type_holiday holiday_type_transfer holiday_type_work_day is_calendar_event is_month_end is_month_start is_weekend month non_transferred_event_count oil_row_exists_in_raw onpromotion sales_lag_16 sales_lag_21 sales_lag_28 sales_rolling_mean_14_shift_16 sales_rolling_mean_28_shift_16 sales_rolling_mean_7_shift_16 state store_nbr store_type transferred_event_count unique_locale_names week_of_year year
feature_infos=[0:4] -1:18:8:21:3:14:10:13:0:12:2:17:1:16:19:15:5:9:20:7:6:11:4 -1:2:5:9:14:12:13:7:3:0:10:1:6:8:4:11:15:16 [1:31] -1:1:3:4:0:6:2:5 [26.190000000000001:110.62] [0:1] [0:1] -1:31:13:26:8:30:25:14:21:1:22:20:5:24:17:12:3:6:32:18:28:29:2:27:10:16:9:15:0:11:7:23:4:19 [0:1] [0:1] [0:2] [0:2] [0:1] [0:1] [0:1] [0:2] [0:3] [0:1] [0:1] [0:1] [0:1] [0:1] [0:1] -1:6:2:4:0:3:5:1:9:7:10:11:8 [0:4] [0:1] [0:718] [0:63434] [0:37514.92578125] [0:124717] [0:17962.28515625] [0:15659.0361328125] [0:22020.427734375] -1:12:6:10:14:0:9:3:4:15:8:11:2:7:13:1:5 -1:6:20:52:37:9:41:10:32:40:30:29:11:36:21:2:12:33:13:34:53:23:51:7:3:8:27:25:4:47:28:14:46:43:31:45:24:16:1:22:39:5:44:49:18:15:42:17:38:50:0:35:19:48:26 -1:3:2:0:1:4 [0:1] [0:4] [1:53] [2013:2017]
tree_sizes=2931 3122 3137 3072 3099 3073 3149 3121 3111 3147 3109 3104 3128 3106 3100 3040 3100 3053 3170 3135 3129 3079 2992 3048 3083 3026 3084 3160 3116 3046 3036 3058 3055 3019 3017 3001 3049 3058 3093 3093 3010 3125 3052 3059 3070 3072 3080 3051 3011 3054 3046 3088 3049 3081 3097 3029 3065 3043 3177 2997 3091 3054 3103 3055 3096 3175 3142 3065 3036 3028 3079 3093 3072 3096 3082 3117 3150 3006 3104 3053 3159 3115 3085 3145 3078 3163 3116 3126 3035 3046 2995 3066 3158 3084 3049 3138 3088 3114 3072 3089 3041 3101 3206 3084 3093 3127 2975 3102 3116 3053 3072 3095 3100 3102 3074 3065 3146 3069 3136 3022 3064 3148 3108 3138 3069 3084 3141 3049 3041 3103 3072 3121 2913 3051 3079 3050 3065 3075 3044 3195 3005 3110 2961 3132 3113 3072 3072 3106 3063 3081 3110 3079 3055 3116 3087 3007 3041 3082 3117 3072 3051 3118 3118 3160 3089 3121 3072 3093 3033 3016 3048 3050 3156 2970 3010 3102 3109 3033 3073 3028 3046 3025 3180 3054 3098 3041 3064 3063 3055 3061 3054 3082 3062 3000 2991 3117 3134 3059 3031 3134 3062 3131 3051 3082 3126 3058 3062 3136 3003 3103 3006 3139 3104 3068 3047 3171 3072 2949 3100 3026 3039 3064 3009 3011 3039 3037 3040 3029 3031 3004 2921 3023 2913 3052 3067 3117 3136 3108 3085 2992 3026 3120 3031 3062 3114 2967 3013 3060 2968 3133 3065 2965 3061 3079 3026 3040 2872 3010 3043 3080 3130 3079 3199 3059 3112 3048 3015 2929 3181 2996 3032 3050 3077 3045 2962 3044 3026 2990 3052 3072 3012 3010 2982 3054 2985 3043 3063 3068 3049 3053 3031 3048 3106 2991 3149 3141 3059 2999 3067 3066 2999 3070 2899 2993 3005 2966 3060 3071 3100 3104 3064 3020 3135 3096 3066 3129 2972 2885 3048 3010 3093 2944 3113 3012 3139 3068 3064 3014 2975 3066 3177 3039 2969 3063 3016 3049 3160 3022 3118 3050 2985 3020 3073 3060 3093 3016 3063 2973 3042 3105 3095 3027 3079 3056 3152 3149 3082 3070 3149 3075 2986 2921 3085 3097 3025 3077 2988 3049 2981 3144 3169 3079 3093 3040 3145 3204 2924 3048 3152 3055 2986 3044 3022 3013 3048 2937 3010 2924 3026 3194 3069 3041 2987 3074 3034 3037 3086 3121 3010 3026 3113 3126 3011 3020 3074 2976 3125 3015 2954 2957 3004 3063 3012 3046 2943 2957 3037 3078 3025 3019 3087 3127 2986 3071 3145 3038 2975 3101 3023 3010 3078 3019 3110 3141 3049 2978 3076 3092 3029 3020 2939 3046 2963 3044 3021 2866 3027 3137 3107 3029 3005 3044 3098 3060 2939 3075 3014 3168 3085 3052 3106 3050 3047 3075 3179 3072 3054 2955 3027 3009 3058 2984 3028 3079 3015 3100 3076 3070 2943 3099 3032 3164 3019 2976 3036 3006 3093 2963 3129 2946 2925 3086 2989 3006 3072 3013 3107 3150 2981 3064 2917 3018 2995 2935 3013 3026 3070 3079 3037 3257 3003 3022 3133 3065 2932 3005 2969 3004 3168 3007 2970 3099 3139 3078 3092 3007 3010 3109 3067 2918 2999 3060 3111 3136 3023 3081 2972 3013 3117 3068 2989 3000 3018 2930 3082 3025 3087 2992 3023 3057 2974 3012 3132 3026 3027 3066 3078 3119 2999 3110 3062 3028 3006 2990 3028 2929 2982 2946 3031 3058 3000 3036 3179 3041 2984 3093 3092 3064 3043 3007 2971 3072 2980 3060 2992 3129 3021 3044 3164 2982 2985 2964 3053 3002 3169 2974 3058 3035 3029 3019 3052 3078 3037 2857 3049 3100 2987 3056 2975 3051 3037 3119 3083 3056 3124 3070 3176 3246 2991 3015 2969 2950 3168 2972 3188 2982 2923 3091 3054 3046 3055 3089 3042 2976 3169 3008 2989 3068 3043 3205 2915 3080 3051 3075 2953 3140 2928 3016 3068 3145 3069 3121 3043 2990 2974 2979 3018 2980 3006 3009 3035 2938 3034 3030 3130 3072 2933 3036 2969 3003 2931 2998 3018 2972 3024 3114 2943 2898 2963 3079 3022 3056 2989 3129 3051 3051 3069 3114 2985 3047 3138 3050 3040 2981 3093 3085 3150 2977 3111 2891 3056 3153 2966 2957 2992 2998 3139 3092 3023 3052 3033 3085 3093 2965 3044 3059 2991 3038 3010 3056 3059 2970 3144 3136 3100 3085 3026 3090 3056 2982 3089 3004 3027 3009 3039 3086 2986 3020 3124 3091 3147 3177 3032 3185 3114 3098 3109 3066 3100 3071 2972 3087 2893 3074 3157 2964 2986 3051 3066 3009 3056 3150 3085 3060 3019 3160 3009 3133 3066 3019 3008 3094 2967 3049 2926 2939 3042 3094 3132 3064 2914 3050 3017 2960 3043 3114 3129 3101 3146 3178 2899 3040 3065 2971 3032 3141 3020 2948 3027 2971 3074 3061 2971 3052 3026 3082 3075 3119 3006 3129 2876 3097 3147 3010 3120 3062 3109 2921 3054 3167 3123 2955 3190 3149 3024 3103 3003 3019 3041 2880 3089 2999 3248 3132 3029 2943 3016 3090 3161 3010 3001 3108 2978 2978 2958 2961 3062 3106 3106 3070 2906 2929 3077 3109 3075 3035 3160 3174 3119 2991 2970 3001 3056 3089 3048 3047 3002 3060 3123 3149 3074 2936 2933 2990 2974 3048 2937 3025 3065 2961 3037 3068 2889 3022 3056 3020 3059 3015 2954 3001 3004 2999 3164 2987 3045 3066 3070 3113 3034 3104 3011 3086 3062 2898 3014 3040 3070 3037 3026 2992 3097 3050 2940 3021 3009 3045 3010 3120 2968 2897 3053 3130 3161 3027 2987 3037 3047 3169 3030 2990 2968 3034 3044 2923 2988 3014 3048 2977 3065 3087 3073 3276 3112 2992 3032 3047 3228 3013 3141 3019 2969 3157 3053 3013 3050 2956 3005 3139 3213 3276 3000 3053 3060 3032 3101 3137 3056 3036 3099 3016 3031 3054 3144 2922 2994 3059 3042 3042 2988 3144 3058 2929 3045 3092 2996 3024 3060 3139 3021 3041 2981 2989 3007 3088 3050 3082 3147 3091 3057 3017 3031 3066 3069 3066 3060 3148 2996 3126 3051 3099 3073 3037 3027 3127 3134 3073 3130 3146 2990 3194 3089 3002 3037 2979 3011 3071 2924 3082 3125 3063 3083 2953 3104 2953 2994 2970 2995 2958 3025 3038 3099 3099 3041 3073 3056 3105 3026 3079 3031 3077 2993 2912 3090 3018 3042 2988 3095 2971 2989 3136 3039 3051 3064 3152 2991 3004 3021 3140 3009 3060 3054 3119 3097 3191 2968 3152 3041 3066 2992 3019 2988 3116 3069 2895 3181 3066 3081 3046 3027 3060 3025 3096 3014 3119 3026 3013 3173 3084 3120 3077 2940 3188 3100 3144 3103 3059 3044 2993 3046 3088 3058 3078 3082 3026 3096 3223 3204 3051 2972 2968 3005 2979 3006 2977 3108 3056 3037 3163 3101 3030 3010 3125 2952 3001 3026 3126 3010 3060 3128 2956 2934 3086 3038 3123 3042 3221 3053 3134 3094 3203 3068 2971 3011 3033 3055 3079 2999 3124 3096 3083 3058 3070 3018 2994 3129 2945 3126 3076 3013 3132 3053 3075 2993 3095

Tree=0
num_leaves=31
num_cat=9
split_feature=33 33 33 29 33 32 8 32 27 32 29 35 32 32 4 8 32 8 32 3 28 32 32 24 8 33 29 8 29 8
split_gain=1.24068e+07 1.23883e+06 1.17531e+06 210647 178737 136662 85346.3 80748 63003.6 36761.6 28042.2 26975.5 25379.3 25126.6 22582.4 26241.7 22176.6 18049.9 13746.3 11790.8 9663.82 8917.8 8554.23 11887.7 24555.5 11749.2 8266.63 8211.11 13508.3 7292.03
threshold=35.722143173217781 3.1438571214675908 426.46121215820318 102.00799942016603 1578.702331542969 12.193717479705812 0 0.86974790692329418 1.0000000180025095e-35 210.53764343261722 42.01250076293946 1 768.42465209960949 5.5820107460021982 2 3 3424.2500000000005 4 21.071738243103031 1.5000000000000002 17.002499580383304 69.465000152587905 2.1091270446777348 5 6 0.30952382087707525 1.0000000180025095e-35 7 inf 8
decision_type=10 8 10 8 10 10 1 10 2 10 10 1 10 10 1 1 10 1 10 2 10 10 10 1 1 10 8 1 8 1
left_child=1 7 3 10 12 6 11 8 -1 -5 14 -3 -4 27 15 -2 -6 -10 -7 -13 29 -12 -9 24 -24 -25 -20 -8 -29 -11
right_child=2 5 4 9 16 18 13 22 17 20 21 19 -14 -15 -16 -17 -18 -19 26 -21 -22 -23 23 25 -26 -27 -28 28 -30 -31
leaf_value=2.7808173695476528 2.8005629060516726 2.8097357322322254 3.0855879794916712 3.0200765155881082 3.1556597104333521 2.9050987023064083 2.9314095438709313 2.8090767853789416 3.0832290553028847 2.8023295313802885 2.9691344464009477 2.7790391104986427 3.1178658276569773 2.8739795723797585 2.9563205887913395 2.9716573950546756 3.1963682610233763 2.8700573814262373 2.8308843978087159 3.0721500024402975 3.0527963230084767 2.994752690721064 3.0464651333008681 2.7785476643541989 2.8474621494840311 2.8311617324259588 2.9326516781672094 2.8493488567171776 2.7979460422319415 3.01802794233528
leaf_weight=687402 5421 1283 130299 183835 87562 108716 2742 110184 2052 656 58146 360 114448 180651 49351 3809 54240 1910 2035 7009 181737 81737 1744 12992 13363 57974 100350 121449 14286 939
leaf_count=687402 5421 1283 130299 183835 87562 108716 2742 110184 2052 656 58146 360 114448 180651 49351 3809 54240 1910 2035 7009 181737 81737 1744 12992 13363 57974 100350 121449 14286 939
internal_value=2.9196 2.8263 3.05937 3.01344 3.12656 2.8861 2.8659 2.79 2.78196 3.03588 2.97194 3.02077 3.10068 2.8617 2.9429 2.87115 3.17123 2.98076 2.91748 3.05763 3.05172 2.9841 2.8183 2.83012 2.87051 2.82154 2.93063 2.84567 2.84394 2.92918
internal_weight=2.37868e+06 1.4265e+06 952180 565631 386549 538881 327780 887621 691364 367167 198464 8652 244747 319128 58581 9230 141802 3962 211101 7369 183332 139883 196257 86073 15107 70966 102385 138477 135735 1595
internal_count=2378682 1426502 952180 565631 386549 538881 327780 887621 691364 367167 198464 8652 244747 319128 58581 9230 141802 3962 211101 7369 183332 139883 196257 86073 15107 70966 102385 138477 135735 1595
cat_boundaries=0 1 3 4 5 6 7 8 9 10
cat_threshold=318773160 272105472 1573384 64 4194304 1396973480 260 1074003968 541067264 1074003968
is_linear=0
shrinkage=1


Tree=1
num_leaves=31
num_cat=6
split_feature=33 33 33 29 33 32 8 32 27 30 30 30 33 35 30 29 8 8 32 22 28 33 32 24 8 33 29 29 32 28
split_gain=1.11924e+07 1.14108e+06 1.04147e+06 172948 170494 133730 76944.9 67754.1 57252.9 31760.5 27533 27323.6 24600.8 24181.2 20460.1 19813.3 29943.9 14576.7 13753.2 11006.4 10789.3 8970.28 8239.87 10471 21874.5 9941.62 7630 7607.05 8176.97 7049.27
threshold=37.007286071777351 3.0564285516738896 401.13336181640631 111.00749969482423 1578.702331542969 12.193717479705812 0 0.71714287996292125 1.0000000180025095e-35 41.031499862670906 706.09948730468761 202.17250061035159 6.1499285697937021 1 3462.4475097656255 1.0000000180025095e-35 2 3 22.582010269165043 1.0000000180025095e-35 13.006000041961672 74.283214569091811 1.973357141017914 4 5 0.30952382087707525 1.0000000180025095e-35 31.005000114440922 3.6459285020828252 159.01100158691409
decision_type=10 8 8 8 10 10 1 10 2 8 10 10 10 1 10 10 1 1 10 2 10 10 10 1 1 10 8 10 10 10
left_child=1 7 3 9 10 6 13 8 -1 15 -4 -5 27 -3 -6 16 -2 -10 -7 -15 -13 -11 -9 24 -24 -25 -20 28 -8 -12
right_child=2 5 4 11 14 18 12 22 17 21 29 20 -14 19 -16 -17 -18 -19 26 -21 -22 -23 23 25 -26 -27 -28 -29 -30 -31
leaf_value=-0.13239163698521278 -0.12546285972337601 -0.10448648599838768 0.15448827026180431 0.096220532327477057 0.22406411401841961 -0.012429461105664341 -0.085238956799285059 -0.10709863646155271 0.15544074806322472 0.05062183827396334 0.050122142799374506 -0.0037249321275322936 -0.041646934951998879 0.14427933833494819 0.26318946917465619 0.031160842443167448 0.12209033381139144 -0.043413506736798418 -0.085846819134572566 -0.13347708318541027 0.12587299499217408 0.074850245098086757 0.12009491653877358 -0.13392006537434631 -0.070257325753340566 -0.086050013758055974 0.014979806643654853 0.06740900861347103 -0.061840375146898809 0.1882771429151906
leaf_weight=668495 4780 1285 129536 163799 87062 122057 57003 119442 2008 66541 931 1621 160868 7018 54323 47471 1631 1692 1914 375 172616 89741 1685 13327 13814 58354 93009 1014 108304 125967
leaf_count=668495 4780 1285 129536 163799 87062 122057 57003 119442 2008 66541 931 1621 160868 7018 54323 47471 1631 1692 1914 375 172616 89741 1685 13327 13814 58354 93009 1014 108304 125967
internal_value=-2.13402e-05 -0.088204 0.13343 0.0887394 0.195015 -0.0319238 -0.0516893 -0.123609 -0.131306 0.0531218 0.170708 0.110883 -0.0555864 0.0951887 0.239099 0.0200183 -0.0624798 0.0648208 -0.00132841 0.129999 0.124667 0.0645348 -0.0985667 -0.0868763 -0.0494924 -0.0949386 0.0129459 -0.0690718 -0.0699094 0.187264
internal_weight=2.37768e+06 1.43166e+06 946019 548200 397819 552847 335867 878817 672195 210164 256434 338036 327189 8678 141385 53882 6411 3700 216980 7393 174237 156282 206622 87180 15499 71681 94923 166321 165307 126898
internal_count=2377683 1431664 946019 548200 397819 552847 335867 878817 672195 210164 256434 338036 327189 8678 141385 53882 6411 3700 216980 7393 174237 156282 206622 87180 15499 71681 94923 166321 165307 126898
cat_boundaries=0 1 3 4 5 6 7
cat_threshold=318773160 272105472 1573384 4194304 1396973480 260 1074003968
is_linear=0
shrinkage=0.05


Tree=2
num_leaves=31
num_cat=2
split_feature=33 33 33 29 29 32 32 27 30 30 30 30 4 32 32 31 32 28 32 24 31 33 32 29 29 39 5 32 39 28
split_gain=1.01022e+07 993451 967347 177318 158617 104723 61423.3 52074.9 32009.3 31418.8 26408.3 24026.5 21024.3 20325.1 14537.8 14330.2 11797.7 10194.8 8205.58 9303.06 14486.3 8860.77 7721.55 6984.97 6891.79 5881.2 6365.77 5712.57 5522.31 5404.74
threshold=33.29536437988282 389.82986450195318 3.0564285516738896 93.00799942016603 1512.5000000000002 11.357749938964846 0.65339285135269176 1.0000000180025095e-35 181.00250244140628 69.008998870849624 10.014500141143801 650.07049560546886 0 3191.6428222656255 54.718875885009773 6.0741758346557626 18.399839401245121 1.0000000180025095e-35 1.8598213791847231 1 0.43650794029235845 1.0000000180025095e-35 1.0000000180025095e-35 273.46049499511724 1.0000000180025095e-35 3.5000000000000004 91.200000000000017 109.86606979370119 3.5000000000000004 231.96600341796878
decision_type=10 10 8 8 10 10 10 2 10 10 8 8 1 10 10 8 10 10 10 1 10 10 10 10 8 2 2 10 2 10
left_child=2 3 6 10 11 9 7 25 27 15 12 -3 -2 29 -12 -4 -7 28 -8 20 -20 -21 -9 -19 -18 26 -1 -5 -10 -6
right_child=1 4 5 8 13 16 18 22 17 -11 14 -13 -14 -15 -16 -17 24 23 19 21 -22 -23 -24 -25 -26 -27 -28 -29 -30 -31
leaf_value=-0.12837446560274005 -0.098697880605073021 0.14415267818818461 -0.063160303657253489 0.069726413984960087 0.051706751726881085 -0.017954682670849452 -0.10281807442717711 0.10735082854211198 0.099596266397626101 0.13885749952334225 0.030437385239339518 0.17486491628822753 0.037411622912177069 0.24820358792945385 0.059226043068809513 -0.041854877979912275 -0.082296630494139558 0.1085439518876597 0.021247801701533679 -0.12816085625812298 -0.0800594758798477 -0.082896396647891946 -0.063677927208595511 0.12759613318602289 0.0074404935181872946 -0.12705148671680075 -0.083879836698784183 0.091173165422459276 -0.084246755666648743 0.21137969470098683
leaf_weight=15403 5717 117801 142382 40959 534 94434 122458 2696 702 2185 74578 138738 5615 60265 106455 177112 2179 113787 5074 12993 11583 64519 873 83456 115394 627412 16835 128594 974 86386
leaf_count=15403 5717 117801 142382 40959 534 94434 122458 2696 702 2185 74578 138738 5615 60265 106455 177112 2179 113787 5074 12993 11583 64519 873 83456 115394 627412 16835 128594 974 86386
internal_value=-5.72606e-05 0.124696 -0.0851857 0.0816424 0.184503 -0.0320765 -0.1174 -0.12495 0.101956 -0.0500574 0.0427315 0.160763 -0.0313124 0.22588 0.0473666 -0.0513498 -0.00479398 0.115562 -0.0942832 -0.0831833 -0.0491706 -0.0904738 0.06551 0.116606 0.00577669 -0.125981 -0.105142 0.0859927 -0.00722982 0.210399
internal_weight=2.37809e+06 964561 1.41353e+06 560837 403724 533686 879846 663219 368472 321679 192365 256539 11332 147185 181033 319494 212007 198919 216627 94169 16657 77512 3569 197243 117573 659650 32238 169553 1676 86920
internal_count=2378093 964561 1413532 560837 403724 533686 879846 663219 368472 321679 192365 256539 11332 147185 181033 319494 212007 198919 216627 94169 16657 77512 3569 197243 117573 659650 32238 169553 1676 86920
cat_boundaries=0 1 2
cat_threshold=64 260
is_linear=0
shrinkage=0.05


Tree=3
num_leaves=31
num_cat=9
split_feature=33 33 33 30 33 32 32 8 27 33 35 30 30 32 8 4 8 30 28 3 32 30 30 8 30 32 8 32 24 8
split_gain=9.1107e+06 928130 849487 157200 124555 98982.3 67794.5 65773 44759.3 27961.3 21374.8 21364.5 21252 20530.3 15214.1 22992.6 14515.6 14365.8 10268.9 9463.54 9297.5 8003.46 7851.25 14346.2 7225.04 7215.87 6707.36 6285.68 8335.9 18203.5
threshold=37.007286071777351 3.4491429328918461 453.78572082519537 107.4195022583008 1776.1417236328127 13.072751045227053 1.0178571343421938 0 1.0000000180025095e-35 213.29636383056643 1 821.16299438476574 49.004999160766609 6.6449580192565927 2 3 4 3935.2419433593755 1.0000000180025095e-35 1.5000000000000002 23.337381362915043 1.1090000271797182 inf 5 306.09298706054693 0.2264957278966904 6 2.3572232723236088 7 8
decision_type=10 8 10 8 10 10 8 1 2 10 1 10 10 10 1 1 1 10 10 2 10 10 8 1 8 10 1 10 1 1
left_child=1 6 3 12 11 7 8 10 25 18 -3 -4 14 22 15 -2 -10 -6 26 -12 -7 -16 -9 -24 -11 -1 -5 -8 29 -29
right_child=2 5 4 9 17 20 27 13 16 24 19 -13 -14 -15 21 -17 -18 -19 -20 -21 -22 -23 23 -25 -26 -27 -28 28 -30 -31
leaf_value=-0.12090578646814586 -0.094683160340172601 -0.09820907868726074 0.14450163115166689 -0.13566147307358165 0.20686076488014501 -0.009167482008146358 -0.092288094296376882 -0.056324874201744549 0.14258095216616776 0.10644239977743533 -0.12278153423855945 0.17417558117724408 0.059645275173924407 -0.034581385426206965 0.097344826064351658 0.022228672288396631 -0.045102755998819008 0.24225574039032283 0.088701044894444553 0.13705855059919947 0.012383403372317015 0.03384277847417038 -0.015909379889178486 -0.119785900585144 0.12615023690980584 -0.10738273770071034 0.047385356238108051 0.11166959428892145 -0.081322599982863439 -0.060151701595764454
leaf_weight=584621 5773 1261 133694 797 86225 114443 108216 149441 2008 107085 368 111126 126929 152128 5488 15400 2098 43030 175364 7047 88940 51706 4547 12493 82311 118780 1306 1736 70635 13176
leaf_count=584621 5773 1261 133694 797 86225 114443 108216 149441 2008 107085 368 111126 126929 152128 5488 15400 2098 43030 175364 7047 88940 51706 4547 12493 82311 118780 1306 1736 70635 13176
internal_value=-4.2608e-05 -0.0795965 0.120346 0.0820399 0.178937 -0.0271364 -0.110485 -0.0441592 -0.117662 0.101645 0.0916036 0.157972 0.0470047 -0.0478578 0.0265306 -0.00968095 0.0469319 0.218646 0.0873839 0.123981 0.0002568 0.0399307 -0.0599922 -0.0921494 0.115008 -0.118622 -0.0224372 -0.0842798 -0.0741484 -0.0400813
internal_weight=2.37817e+06 1.43194e+06 946234 572159 374075 530668 901270 327285 707507 366863 8676 244820 205296 318609 78367 21173 4106 129255 177467 7415 203383 57194 166481 17040 189396 703401 2103 193763 85547 14912
internal_count=2378172 1431938 946234 572159 374075 530668 901270 327285 707507 366863 8676 244820 205296 318609 78367 21173 4106 129255 177467 7415 203383 57194 166481 17040 189396 703401 2103 193763 85547 14912
cat_boundaries=0 1 3 4 5 6 8 9 10 11
cat_threshold=318773160 272105472 1573384 2296905729 64 1396973480 543172608 1 1074003968 260 1074003968
is_linear=0
shrinkage=0.05


Tree=4
num_leaves=31
num_cat=7
split_feature=29 32 29 32 29 31 31 28 27 8 29 32 29 32 28 29 8 8 32 40 1 30 8 28 32 17 8 32 39 8
split_gain=8.22134e+06 822734 772300 136857 115404 103970 52467.1 43391.7 41532.2 36110.3 23548.8 18665.2 16600.4 16340.3 15474.8 15204.6 14170.5 12617.9 9973.61 8992.74 9276.02 8554.08 16296.6 8390.71 7973.46 7372.81 6090.57 5730.39 5715.3 9930.51
threshold=32.024999618530281 3.3574107885360722 424.00799560546881 113.4716262817383 1609.1364746093752 11.145178794860842 0.86392858624458324 457.02299499511724 1.0000000180025095e-35 0 214.59799957275393 52.536535263061531 14.000999927520754 802.09899902343761 1.0000000180025095e-35 3769.234008789063 1 2 7.0038213729858407 2013.5000000000002 3 1.0000000180025095e-35 4 1.0000000180025095e-35 31.19316387176514 1.0000000180025095e-35 5 0.28991597890853887 3.5000000000000004 6
decision_type=10 8 10 10 10 10 10 10 2 1 10 8 8 10 10 10 1 1 10 2 1 8 1 10 10 2 1 10 2 1
left_child=1 6 3 11 13 9 8 12 27 19 -5 -2 21 -4 16 -6 -11 -10 -16 20 -3 22 -7 -23 -14 -22 -9 28 29 -1
right_child=2 5 4 10 15 7 -8 26 17 14 -12 -13 24 -15 18 -17 -18 -19 -20 -21 25 23 -24 -25 -26 -27 -28 -29 -30 -31
leaf_value=-0.037069930293198994 0.02594459149515025 -0.12516282560243949 0.13645208314033702 0.083605289554497836 0.19360944203935002 -0.11341516153232337 -0.081540095753164232 -0.058809759870388494 -0.044964019490016507 -0.046238126557363958 0.10920641318492277 0.056740658843718463 -0.0024907684373771141 0.16267253896158618 -0.053104824088715676 0.22845477600104169 -0.10300735232407165 0.13151159677705312 -0.033059658353087551 -0.10849390451056203 0.10737285166144589 -0.08247957272098369 0.032653272058619003 -0.01362820095334271 0.024304023801961283 -0.10785869338282957 0.16540352172236936 -0.1016595445578331 -0.11585283494683146 -0.1083908728300431
leaf_weight=6251 79185 518 131682 186436 92256 6189 177303 326 1925 20358 173386 129954 99227 108379 154768 47464 24052 2120 103601 720 6072 4667 2758 85026 38550 425 4229 97301 569665 22869
leaf_count=6251 79185 518 131682 186436 92256 6189 177303 326 1925 20358 173386 129954 99227 108379 154768 47464 24052 2120 103601 720 6072 4667 2758 85026 38550 425 4229 97301 569665 22869
internal_value=4.61448e-07 -0.0757589 0.114103 0.0772464 0.169319 -0.0279029 -0.105837 -0.00325868 -0.11199 -0.0470278 0.0959419 0.0450807 -0.00620404 0.14829 -0.0497524 0.205448 -0.077019 0.0477511 -0.0450673 0.059604 0.076955 -0.0218625 -0.0684798 -0.0172116 0.00500654 0.0931358 0.149581 -0.112919 -0.114748 -0.0931326
internal_weight=2.37766e+06 1.42892e+06 948742 568961 379781 551486 877434 240972 700131 310514 359822 209139 236417 240061 302779 139720 44410 4045 258369 7735 7015 98640 8947 89693 137777 6497 4555 696086 598785 29120
internal_count=2377662 1428920 948742 568961 379781 551486 877434 240972 700131 310514 359822 209139 236417 240061 302779 139720 44410 4045 258369 7735 7015 98640 8947 89693 137777 6497 4555 696086 598785 29120
cat_boundaries=0 1 3 5 6 7 8 9
cat_threshold=318773160 1618225157 1 2361090119 1 83968 4194304 4194304 1208320064
is_linear=0
shrinkage=0.05


Tree=5
num_leaves=31
num_cat=8
split_feature=33 33 33 29 33 33 8 32 27 29 32 32 29 32 32 4 8 8 1 17 29 28 28 8 29 28 23 32 8 8
split_gain=7.4397e+06 773122 682591 123238 102245 96279.7 56557.5 41750 36196.9 21513.7 19453.5 17636.6 16298.2 13236.9 12611 12158.8 19231.2 11584.5 8071.23 7450.02 6967.64 6441.42 6416.43 6319.87 9318.47 5627.82 5351.41 5344.13 5106.35 4946.27
threshold=38.292928695678718 2.8767143487930302 453.78572082519537 120.00500106811525 1666.0554199218752 11.573699951171877 0 0.93928569555282604 1.0000000180025095e-35 51.008998870849616 245.16301727294925 5.2240397930145273 785.94851684570324 3986.1250000000005 19.036375999450687 1 2 3 4 1.0000000180025095e-35 1.0000000180025095e-35 47.003999710083015 141.01550292968753 5 inf 38.205499649047859 1.0000000180025095e-35 84.43280410766603 6 7
decision_type=10 8 10 8 10 10 1 8 2 10 10 10 10 10 10 1 1 1 1 2 8 10 10 1 8 10 2 10 1 1
left_child=1 7 3 9 12 6 18 8 -1 15 25 23 -4 -6 -7 16 -2 -10 -3 -20 -16 28 -14 -8 -25 -5 -13 -11 -12 -26
right_child=2 5 4 10 13 14 11 -9 17 27 21 26 22 -15 20 -17 -18 -19 19 -21 -22 -23 -24 24 29 -27 -28 -29 -30 -31
leaf_value=-0.10736473884889682 -0.091634798249340788 -0.087457790252067347 0.12936093053736325 0.026555544881057675 0.18605646387037186 -0.014655830670072222 0.015585772227279283 -0.079019606874633941 -0.044026394310687111 0.045277856748647177 -0.12117166160958753 -0.0421720017369481 0.011626131420812525 0.22015069469729687 -0.078774265441669433 0.031751917876155021 0.042871737846833652 0.12496636829544934 0.10738011409147696 -0.11404484618455171 0.010168379428163532 0.10807060222542478 0.15646175069177107 -0.057465219882285923 -0.050426931737241637 0.084320693859958495 -0.02340383005991813 0.064429157132087148 0.07620872984036231 -0.11773541979549924
leaf_weight=695357 5447 640 123957 4313 95302 103561 2676 172313 1973 62449 530 133762 770 40661 2239 61781 5171 2069 7626 399 129628 147001 114375 118731 3755 190625 53048 87465 820 10548
leaf_count=695357 5447 640 123957 4313 95302 103561 2676 172313 1973 62449 530 133762 770 40661 2239 61781 5171 2069 7626 399 129628 147001 114375 118731 3755 190625 53048 87465 820 10548
internal_value=-5.91763e-06 -0.0715116 0.10933 0.0746454 0.161634 -0.0260432 -0.0434207 -0.101066 -0.106497 0.0456426 0.0934273 -0.0468072 0.141946 0.196254 -0.00159761 0.0232601 -0.0261531 0.0426865 0.0825767 0.0962382 0.00865762 0.107072 0.155493 -0.0605268 -0.0620545 0.0830428 -0.0368426 0.0564517 -0.00164649 -0.100187
internal_weight=2.37899e+06 1.43832e+06 940667 565602 375065 566613 331185 871712 699399 222313 343289 322520 239102 135963 235428 72399 10618 4042 8665 8025 131867 148351 115145 135710 133034 194938 186810 149914 1350 14303
internal_count=2378992 1438325 940667 565602 375065 566613 331185 871712 699399 222313 343289 322520 239102 135963 235428 72399 10618 4042 8665 8025 131867 148351 115145 135710 133034 194938 186810 149914 1350 14303
cat_boundaries=0 1 2 3 5 6 7 8 10
cat_threshold=318773160 64 4194304 2361057351 1 83968 541067264 1074003968 2105349 1
is_linear=0
shrinkage=0.05


Tree=6
num_leaves=31
num_cat=2
split_feature=29 32 29 30 30 31 31 27 31 32 29 29 31 29 32 3 4 30 32 31 30 32 32 39 5 35 5 27 23 32
split_gain=6.70724e+06 693158 615124 109473 89531.3 87643.6 45605.4 33674.8 22313.8 17918.5 17307.5 13816.5 11335.7 10823.1 10417.7 8359 7896.89 9517.25 6595.71 5828.42 5619.77 4748.08 4459.08 5276.04 5368.7 5733.93 7052.36 3602.77 3575.79 3495.65
threshold=34.016500473022468 3.5092592239379887 448.20199584960943 119.0014991760254 1522.2285156250002 13.146428585052492 0.79285714030265819 1.0000000180025095e-35 314.07304382324224 64.007141113281264 235.02799987792972 3601.056518554688 7.359642982482911 17.003999710083011 834.27368164062511 22.500000000000004 0 1.1090000271797182 1.0000000180025095e-35 1.9538928866386416 1.0000000180025095e-35 32.451717376708991 0.2264957278966904 3.5000000000000004 91.200000000000017 1 95.580000000000013 7.5000000000000009 1.0000000180025095e-35 7050.6411132812509
decision_type=10 8 10 10 10 10 10 2 10 10 10 10 10 8 10 2 1 8 10 10 10 10 10 2 2 1 2 2 2 8
left_child=1 6 3 9 14 12 7 22 13 -2 -5 -6 27 16 -4 -10 17 -7 -9 -8 -18 -15 23 24 -1 -26 -27 28 -3 -13
right_child=2 5 4 10 11 8 19 18 15 -11 -12 29 -14 21 -16 -17 20 -19 -20 -21 -22 -23 -24 -25 25 26 -28 -29 -30 -31
leaf_value=-0.10748479996621824 0.028299983174586225 -0.051518843031180678 0.12499330559028805 0.078903934932169448 0.17361097392154448 -0.092141965713524565 -0.081816294741819007 0.088721924814080561 0.128954019672852 0.056668641562453152 0.10139453645414503 0.1979718924232822 -0.028345787245930749 0.0017639402114635904 0.14686407653343542 -0.058491558074633278 0.046949025037331824 -0.010742241950941067 -0.050979137611152095 -0.064384316356129331 -0.010909463946149389 0.023585971180313664 -0.092518615885839706 -0.10486868005597137 -0.11176768986841548 -0.02215156714185312 -0.11162894178532 0.17644848155892559 -0.036933119757492715 0.22754527340852376
leaf_weight=12412 96635 147740 125687 184751 94101 6601 104212 2689 4446 131293 159348 37338 130362 75724 96180 686 4430 7874 1231 88879 79429 37158 103219 556889 4471 8621 2957 179 58741 13733
leaf_count=12412 96635 147740 125687 184751 94101 6601 104212 2689 4446 131293 159348 37338 130362 75724 96180 686 4430 7874 1231 88879 79429 37158 103219 556889 4471 8621 2957 179 58741 13733
internal_value=-1.35121e-05 -0.0678494 0.103933 0.0715172 0.154452 -0.0239488 -0.0952814 -0.101273 0.000886791 0.0446413 0.0893193 0.184981 -0.0398918 -0.00161643 0.134475 0.103891 -0.0137431 -0.0478335 0.0448497 -0.0737928 -0.00785153 0.00894737 -0.102105 -0.103795 -0.082789 -0.0636842 -0.0449728 -0.0471749 -0.0473696 0.205928
internal_weight=2.37802e+06 1.43895e+06 939066 572027 367039 553370 885580 692489 216348 227928 344099 145172 337022 211216 221867 5132 98334 14475 3920 193091 83859 112882 688569 585350 28461 16049 11578 206660 206481 51071
internal_count=2378016 1438950 939066 572027 367039 553370 885580 692489 216348 227928 344099 145172 337022 211216 221867 5132 98334 14475 3920 193091 83859 112882 688569 585350 28461 16049 11578 206660 206481 51071
cat_boundaries=0 1 3
cat_threshold=64 272105472 1573376
is_linear=0
shrinkage=0.05


Tree=7
num_leaves=31
num_cat=3
split_feature=33 33 33 33 30 29 32 27 29 29 30 30 4 32 32 29 32 28 28 24 31 33 39 32 5 32 39 5 35 5
split_gain=6.06162e+06 599802 579787 105685 101134 65938.9 33848.4 31737.2 17564.6 17027.4 15864 15797.6 14627.9 14269.5 14199.5 10254.4 9082.12 8401.51 5998.04 5867.87 18654.8 6272.52 5565.71 4850.81 4489.17 6596.69 4443.5 4983.22 4969.62 6268.5
threshold=33.29536437988282 357.38528442382818 2.8767143487930302 1381.7857055664065 91.008998870849624 11.00399971008301 0.58201059699058544 1.0000000180025095e-35 171.00299835205081 1.0000000180025095e-35 2730.5000000000005 576.05798339843761 0 8.3263568878173846 17.181878089904789 193.00599670410159 59.215982437133796 1.0000000180025095e-35 131.91149902343753 1 1.0000000180025095e-35 1.3021857142448428 3.5000000000000004 5697.8137207031259 91.495000000000019 13.53789281845093 3.5000000000000004 91.200000000000017 2 95.580000000000013
decision_type=10 10 8 10 8 10 10 2 10 8 8 8 1 10 8 10 10 10 10 1 10 10 2 10 2 10 2 2 1 2
left_child=2 4 6 11 9 13 7 26 -6 12 -5 -3 -2 -4 -7 -16 -11 -10 22 20 24 -21 -13 -12 -8 -26 27 -1 -29 -30
right_child=1 3 5 10 8 14 19 -9 17 16 23 18 -14 -15 15 -17 -18 -19 -20 21 -22 -23 -24 -25 25 -27 -28 28 29 -31
leaf_value=-0.10039517981205795 -0.086129844503441397 0.10753463266452977 -0.045651232048522582 0.15786307660852672 0.06512111477326607 -0.017571603348966427 -0.12311527864856685 0.054096846180413508 -0.025637760330426886 0.024006576648305598 0.18197506350396028 0.11263030596880785 0.089258041459561357 -0.023350375160776555 0.0071548216268986836 0.12945062630897572 0.046278123537245773 0.088510074581790651 0.13317016434638418 -0.08689646241522464 -0.073071712385716373 -0.068242147868708178 -0.11951113306832584 0.21026074390847038 -0.00063549701476400486 0.11550893282560255 -0.098689769640789085 -0.1061967993738189 -0.023599767776391816 -0.10476196114296786
leaf_weight=15157 5162 111825 235391 81065 156339 90310 530 3459 1625 90687 57786 603 1535 103175 110780 1740 92437 195347 149892 94408 31021 86279 450 20628 4955 1622 616986 4455 9218 3206
leaf_count=15157 5162 111825 235391 81065 156339 90310 530 3459 1625 90687 57786 603 1535 103175 110780 1740 92437 195347 149892 94408 31021 86279 450 20628 4955 1622 616986 4455 9218 3206
internal_value=4.95291e-06 0.0965713 -0.0659849 0.14127 0.061821 -0.0253493 -0.0912345 -0.0969417 0.0776357 0.0323851 0.17338 0.121781 -0.0459177 -0.0388553 -0.00280488 0.00904713 0.035249 0.0875682 0.132335 -0.0742159 -0.0563172 -0.077985 0.0134053 0.189419 0.0167343 0.0280209 -0.0977468 -0.0795831 -0.0608894 -0.0445145
internal_weight=2.37807e+06 965381 1.41269e+06 422249 543132 541396 871296 652481 353311 189821 159479 262770 6697 338566 202830 112520 183124 196972 150945 218815 38128 180687 1053 78414 7107 6577 649022 32036 16879 12424
internal_count=2378073 965381 1412692 422249 543132 541396 871296 652481 353311 189821 159479 262770 6697 338566 202830 112520 183124 196972 150945 218815 38128 180687 1053 78414 7107 6577 649022 32036 16879 12424
cat_boundaries=0 1 2 4
cat_threshold=64 260 272105472 1573376
is_linear=0
shrinkage=0.05


Tree=8
num_leaves=31
num_cat=9
split_feature=33 33 33 29 29 33 8 29 27 33 30 29 35 8 30 30 30 8 8 29 28 33 17 31 8 8 24 8 40 5
split_gain=5.46482e+06 551353 512850 97693 93911.4 60881.9 27552.1 28964.4 27394.4 20803.3 17483.9 16635.5 16439.2 14538.5 14226.6 12340.2 10122.8 9783.61 9522.21 11171.1 7749.67 7158.47 6381.66 5955.1 5338.76 4961.94 4816.15 13426.6 24982.6 28408.3
threshold=32.147928237915046 348.68736267089849 2.5781428813934331 1234.3239746093752 85.005001068115249 9.7163572311401385 0 1.0450000166893008 1.0000000180025095e-35 0.58500000834465038 157.02099609375003 2625.7619628906255 1 2 26.005000114440922 544.31500244140636 18.001999855041507 3 4 1.0000000180025095e-35 1.0000000180025095e-35 5.1447143554687509 1.0000000180025095e-35 17.790500640869144 5 6 7 8 2013.5000000000002 91.200000000000017
decision_type=10 8 8 10 8 8 1 10 2 10 10 10 1 1 8 8 10 1 1 10 10 8 2 8 1 1 1 1 2 2
left_child=2 4 8 15 14 21 12 17 9 26 -6 -5 -7 -10 18 -3 -9 -8 19 -2 24 -4 25 -19 -12 -14 27 28 -1 -30
right_child=1 3 5 11 10 6 7 16 13 -11 20 -13 22 -15 -16 -17 -18 23 -20 -21 -22 -23 -24 -25 -26 -27 -28 -29 29 -31
leaf_value=-0.097849251069588528 -0.092975691793877796 0.10083232599429544 -0.050380345813880026 0.14776061541192548 0.059221745528040264 -0.0920266178562818 -0.0042270163322729896 -0.014522119197439688 0.11711632211861181 -0.071980772116938166 -0.11807499120384456 0.17868305063483805 0.18512243623190036 -0.036350369195158626 0.03507875453210775 0.12320068488926091 0.0064725184444117088 -0.015150819271957564 0.019902554409453755 0.0028321942317110424 0.082478661901427733 -0.034343308247713276 -0.093049339613022475 -0.09248452854543375 0.053754593474691151 0.091591343757846236 -0.094953860233346982 -0.092489007357756808 -0.098760850275925807 0.010424133799575202
leaf_weight=26480 5035 106236 129077 91699 147107 1162 5454 141274 2155 161757 789 82835 2121 5357 148294 147089 96723 2952 20658 7686 212846 151002 364 15899 1030 4556 451465 181809 9293 16594
leaf_count=26480 5035 106236 129077 91699 147107 1162 5454 141274 2155 161757 789 82835 2121 5357 148294 147089 96723 2952 20658 7686 212846 151002 364 15899 1030 4556 451465 181809 9293 16594
internal_value=-3.36056e-06 0.0911974 -0.0630301 0.133653 0.0577716 -0.0253944 -0.00847612 -0.0112991 -0.0872684 -0.0881111 0.0725008 0.162438 0.0816981 0.00779252 0.0284406 0.113821 -0.00598982 -0.0632908 -0.00105119 -0.0350655 0.0816004 -0.0417343 0.110467 -0.0803332 -0.0211546 0.12174 -0.0919165 -0.0860526 -0.0636916 -0.0287738
internal_weight=2.3768e+06 971304 1.40549e+06 427859 543445 550584 270505 262302 854910 847398 361772 174534 8203 7512 181673 253325 237997 24305 33379 12721 214665 280079 7041 18851 1819 6677 685641 234176 52367 25887
internal_count=2376798 971304 1405494 427859 543445 550584 270505 262302 854910 847398 361772 174534 8203 7512 181673 253325 237997 24305 33379 12721 214665 280079 7041 18851 1819 6677 685641 234176 52367 25887
cat_boundaries=0 1 3 4 6 7 8 9 10 11
cat_threshold=318772136 272105472 1573384 1396973480 538979328 1 13107204 1074003968 4232 325 1208320064
is_linear=0
shrinkage=0.05


Tree=9
num_leaves=31
num_cat=3
split_feature=33 33 33 29 33 29 32 27 30 30 32 30 32 29 4 29 29 32 32 28 28 24 31 33 39 28 39 5 35 5
split_gain=4.94246e+06 525032 445787 82920.3 65123.1 56680.1 41540.1 24334.2 17357.5 14127.3 12086.2 11874.2 10918.3 8480.46 12468.4 8342.6 7463.82 6601.98 5702.11 5601.26 5204.46 4647.91 13568 7428.45 4174.47 4060.99 3887.5 4174.04 4521.57 5526.45
threshold=39.71678543090821 3.7184998989105229 481.28599548339849 131.31450653076175 1885.2857055664065 13.001999855041506 1.2182539701461794 1.0000000180025095e-35 55.003999710083015 262.00149536132818 9.4344286918640154 895.27349853515636 24.145502090454105 1.0000000180025095e-35 0 4931.5000000000009 190.02750396728518 1.0000000180025095e-35 0.28991597890853887 21.003000259399418 197.00599670410159 1 1.0000000180025095e-35 1.0000000180025095e-35 3.5000000000000004 34.007999420166023 3.5000000000000004 91.200000000000017 2 95.580000000000013
decision_type=10 8 8 8 10 10 8 2 8 10 10 10 8 8 1 10 10 10 10 10 10 1 10 10 2 10 2 2 1 2
left_child=1 6 3 8 11 10 7 18 13 25 -3 -4 -7 14 -2 -6 -14 -9 26 -11 24 22 -8 -23 -13 -5 27 -1 -29 -30
right_child=2 5 4 9 15 12 21 17 -10 19 -12 20 16 -15 -16 -17 -18 -19 -20 -21 -22 23 -24 -25 -26 -27 -28 28 29 -31
leaf_value=-0.092173068157439239 -0.074296388293035351 -0.037559300189444672 0.10812786607105787 0.01241968775106736 0.15530151552958638 -0.0071348087556932175 0.025664354460781059 0.078271957132668643 0.048903856154125742 -0.01094330290589258 -0.01701195033036261 0.10788844193127256 0.014404311645950916 0.024986851036351815 0.091525054489583993 0.18617306761679361 0.11881721064947051 -0.044683196901578265 -0.077316218767932959 0.091474405379613211 0.13167898803850803 -0.097893744378038508 -0.05622348776118883 -0.060249104451949712 -0.11911244216272131 0.070469879865196636 -0.089850128939102825 -0.096958881766104621 -0.017423115587419408 -0.096110575879163149
leaf_weight=13030 4829 222701 137358 3061 95408 115131 5808 2730 160357 1348 105462 445 82165 70900 1471 28443 1747 1818 128208 136124 101018 14629 39168 125975 370 193064 569511 4454 8670 3004
leaf_count=13030 4829 222701 137358 3061 95408 115131 5808 2730 160357 1348 105462 445 82165 70900 1471 28443 1747 1818 128208 136124 101018 14629 39168 125975 370 193064 569511 4454 8670 3004
internal_value=2.20043e-05 -0.0579478 0.0896398 0.0621027 0.132962 -0.0181881 -0.0808065 -0.086167 0.0395262 0.0781794 -0.0309561 0.117723 0.00286265 0.0200469 -0.0355427 0.162393 0.0165795 0.0291233 -0.0868884 0.0904701 0.130664 -0.0596788 -0.0456384 -0.0641619 0.00481315 0.0695639 -0.0889382 -0.0711244 -0.0541143 -0.0376455
internal_weight=2.37841e+06 1.44421e+06 934196 571154 363042 527206 917005 731425 237557 333597 328163 239191 199043 77200 6300 123851 83912 4548 726877 137472 101833 185580 44976 140604 815 196125 598669 29158 16128 11674
internal_count=2378407 1444211 934196 571154 363042 527206 917005 731425 237557 333597 328163 239191 199043 77200 6300 123851 83912 4548 726877 137472 101833 185580 44976 140604 815 196125 598669 29158 16128 11674
cat_boundaries=0 1 2 4
cat_threshold=64 2308 272105472 1573376
is_linear=0
shrinkage=0.05


Tree=10
num_leaves=31
num_cat=10
split_feature=33 33 32 33 33 30 32 8 35 33 30 30 30 33 30 31 8 30 8 30 22 32 8 30 35 24 8 33 8 8
split_gain=4.45775e+06 483666 394544 71683.3 58744.6 52999 39648.8 27591.4 17649.4 14946.6 13528.5 13195.1 10035.4 9346.18 7437.88 7266.16 9621.78 6701.89 6710.84 6107.32 6009.58 5437.25 5345.19 7153.03 4410.46 4319.94 16059.7 6952.03 4076.32 3632.59
threshold=41.290357589721687 3.8799214363098149 480.18081665039068 134.87807464599612 1885.2857055664065 13.002500057220461 1.289915978908539 0 1 7.4309284687042245 61.018499374389656 239.27750396728518 917.04251098632824 20.299428939819339 4944.5000000000009 14.580499649047853 2 10.014500141143801 3 447.03199768066412 1.0000000180025095e-35 0.36375661194324499 4 5.0060000419616708 5 6 7 1.0000000180025095e-35 8 9
decision_type=10 8 8 8 10 10 10 1 1 10 8 8 10 8 10 8 1 10 1 10 2 10 1 10 1 1 1 8 1 1
left_child=1 6 3 10 12 7 21 8 -3 15 17 22 -4 -7 -6 -9 24 18 -2 -15 28 -1 23 -5 -17 26 -8 -27 -10 -13
right_child=2 5 4 11 14 13 25 9 20 -11 -12 29 -14 19 -16 16 -18 -19 -20 -21 -22 -23 -24 -25 -26 27 -28 -29 -30 -31
leaf_value=-0.083647850025485387 -0.051505465752017004 -0.11253568903894105 0.10322487323327677 -0.070570366744672028 0.1475987663749502 -0.0084530462672699619 0.10143483612743294 -0.038217773232500779 0.17951529778022424 -0.020434365840694971 0.046896331307785685 0.063874043927215823 0.12403523235940411 0.012055153863860454 0.17690228315678314 -0.11791633443441243 -0.094413346104841492 0.026004543917145625 0.051535880309514871 0.13180681683374351 -0.09396383341352145 -0.07212476262171949 0.066705293975447083 0.046816051284380232 0.0042989476084280198 -0.09318483771010265 -0.048486323682272646 -0.056391385102062146 0.085670664081252651 0.087066390119310999
leaf_weight=616914 5623 1151 140708 1515 95568 89548 1855 139348 1644 159081 139877 19523 98557 111270 28044 869 13238 75465 2187 1074 374 122811 170064 9017 4583 14303 42738 125554 4190 141242
leaf_count=616914 5623 1151 140708 1515 95568 89548 1855 139348 1644 159081 139877 19523 98557 111270 28044 869 13238 75465 2187 1074 374 122811 170064 9017 4583 14303 42738 125554 4190 141242
internal_value=-3.54002e-05 -0.0547739 0.085582 0.0594344 0.126258 -0.0165171 -0.0765633 -0.0290319 0.0666211 -0.0312529 0.0373973 0.0738401 0.111797 0.00359656 0.154248 -0.0421447 -0.0714194 0.0214414 -0.0226483 0.0132011 0.0999781 -0.0817349 0.0645642 0.0298968 -0.0153793 -0.055823 -0.0422264 -0.0601505 0.112596 0.0842598
internal_weight=2.37794e+06 1.45054e+06 927390 564513 362877 526370 924175 324478 7359 317119 223152 341361 239265 201892 123612 158038 18690 83275 7810 112344 6208 739725 180596 10532 5452 184450 44593 139857 5834 160765
internal_count=2377935 1450545 927390 564513 362877 526370 924175 324478 7359 317119 223152 341361 239265 201892 123612 158038 18690 83275 7810 112344 6208 739725 180596 10532 5452 184450 44593 139857 5834 160765
cat_boundaries=0 1 3 5 6 7 9 10 11 12 13
cat_threshold=318773160 272105472 1573384 543172609 1 2154864640 2151784512 272105472 1573384 2308 1074003968 4232 1074102272
is_linear=0
shrinkage=0.05


Tree=11
num_leaves=31
num_cat=7
split_feature=33 33 33 30 30 32 32 8 27 8 30 32 32 8 32 32 1 28 33 30 8 3 33 30 28 28 28 32 8 8
split_gain=4.02576e+06 445444 350383 65566.2 50369 49793.2 36106.4 35539.1 21782.5 12966.3 15836.9 10991.1 10893.1 9561.86 8806.43 6215.43 5914.66 5730.67 5582.75 5506.08 9546.44 5424.17 5328.12 5298.13 4866.56 4744.76 4735.86 4918.7 4817.67 4301.46
threshold=42.859928131103523 3.8799214363098149 505.50886535644537 135.31250000000003 1900.2769775390627 14.929535865783693 1.3603895902633669 0 1.0000000180025095e-35 1 1.1090000271797182 281.50772094726568 6.8337912559509286 2 901.30609130859386 5697.8137207031259 3 63.006000518798835 0.15476191043853763 inf 4 1.5000000000000002 85.04178619384767 1.0000000180025095e-35 338.47000122070318 20.003499984741214 1.0000000180025095e-35 26.964982032775882 5 6
decision_type=10 8 8 8 10 10 8 1 2 1 10 10 10 1 10 10 1 10 8 8 1 2 10 8 10 10 8 10 1 1
left_child=1 6 3 9 14 7 8 16 18 10 -2 25 19 -10 -4 24 -3 -13 -1 -9 -21 -18 -11 -7 -6 29 28 -28 -25 -5
right_child=2 5 4 11 15 23 -8 12 13 22 -12 17 -14 -15 -16 -17 21 -19 -20 20 -22 -23 -24 26 -26 -27 27 -29 -30 -31
leaf_value=-0.080335119551529763 -0.06190932005377027 -0.070180993940603842 0.098274602460868249 -0.11958897997396062 0.011140398036402006 -0.061423456365523627 -0.052482782646271348 -0.03630018327928216 0.11054723893144479 0.033294922235975452 0.025622664492989417 -0.015021221554121188 -0.021282175903688583 -0.031708698209996743 0.11776266712096695 0.17280670154290842 -0.092928892476301581 0.08404264838873382 -0.069273221407143579 -0.0042447775350371439 -0.0893229304534255 0.094264171273019282 0.051266882036975797 -0.0029468734586553906 0.14337179309469369 0.065249143200337298 -0.00030645113839352115 0.015839384458647531 -0.11281314837789745 0.035084477011597906
leaf_weight=600809 5702 663 121404 615 701 3016 177978 134271 2031 67609 55033 1476 171970 2796 111056 20359 407 131330 140861 4510 12347 7590 105777 2468 97354 201482 112395 81283 1670 1584
leaf_count=600809 5702 663 121404 615 701 3016 177978 134271 2031 67609 55033 1476 171970 2796 111056 20359 407 131330 140861 4510 12347 7590 105777 2468 97354 201482 112395 81283 1670 1584
internal_value=-7.01351e-06 -0.0517369 0.0817893 0.057612 0.121107 -0.0153137 -0.0727203 -0.0272087 -0.0775453 0.0372926 0.0174011 0.0717497 -0.0298879 0.0283205 0.107585 0.147651 0.0726955 0.0829416 -0.0782343 -0.0396823 -0.0666178 0.0846209 0.0442567 0.00433587 0.142427 0.0644519 0.00533877 0.0064697 -0.0475826 -0.00859225
internal_weight=2.37855e+06 1.45706e+06 921482 570608 350874 532590 924475 331758 746497 234121 60735 336487 323098 4827 232460 118414 8660 132806 741670 151128 16857 7997 173386 200832 98055 203681 197816 193678 4138 2199
internal_count=2378547 1457065 921482 570608 350874 532590 924475 331758 746497 234121 60735 336487 323098 4827 232460 118414 8660 132806 741670 151128 16857 7997 173386 200832 98055 203681 197816 193678 4138 2199
cat_boundaries=0 1 2 3 4 6 8 9
cat_threshold=318773160 2365169728 1929650088 83968 543172608 1 1626350593 1 3221487616
is_linear=0
shrinkage=0.05


Tree=12
num_leaves=31
num_cat=9
split_feature=33 33 32 33 32 32 8 32 27 35 33 33 32 8 8 28 33 3 28 28 8 26 8 32 24 8 33 8 32 31
split_gain=3.62776e+06 387485 328495 58731.2 51781.4 45108.1 33165 26709.6 19828.7 13662.7 11051.1 10382.3 10154.1 8004.63 6877.67 6717.39 5631.99 5306.19 4936.37 4534.85 4565.69 4323.29 4122.08 6658.64 3949.8 15349.5 5570.95 3933.9 3903.23 3770.32
threshold=39.71678543090821 3.4491429328918461 448.18959045410162 123.50635910034181 2057.607055664063 14.464535713195803 0 1.0727512836456301 1.0000000180025095e-35 1 6.3474166393280038 824.26635742187511 224.51190185546878 2 3 73.003501892089858 6276.2512207031259 1.5000000000000002 509.36399841308599 1.0000000180025095e-35 4 1.0000000180025095e-35 5 13.072751045227053 6 7 1.0000000180025095e-35 8 26.964982032775882 1.0000000180025095e-35
decision_type=10 8 8 10 10 10 1 10 2 1 10 10 10 1 1 10 10 2 10 8 1 2 1 8 1 1 10 1 10 10
left_child=1 7 3 14 11 6 9 8 -1 -3 22 15 -5 -10 -2 -4 18 -11 -6 20 -7 -12 -8 -24 25 -9 -26 -19 -21 -27
right_child=2 5 4 12 16 19 10 24 13 17 21 -13 -14 -15 -16 -17 -18 27 -20 28 -22 -23 23 -25 26 29 -28 -29 -30 -31
leaf_value=-0.074781512132334749 0.037790704328184183 -0.08035958487941669 -0.035600237886361956 0.056385487902863268 0.0027543722236178063 -0.0037445060631863892 0.020085986187660384 0.10199853301065998 -0.034225780024503126 -0.086496309271588495 -0.0095919375752139199 0.11055205035913768 0.073390907697486088 0.10157067995259075 0.018522347919517738 0.091646772964077375 0.16686383738604055 0.1634304007207539 0.13706837183772191 -0.0014099544573446532 -0.10855990976996772 -0.026313600199130954 -0.036940298960936743 -0.069791322304256304 -0.085839089461441198 -0.0026665523989662918 -0.053555806223943958 0.080665022960599575 0.013375843762797841 -0.050946305993798548
leaf_weight=712254 135715 1289 1045 176747 689 2471 2826 1818 2202 378 54205 130511 174452 2123 70415 130234 17615 2083 96564 119473 1789 134747 129164 17518 14963 4512 125198 4920 71255 38977
leaf_count=712254 135715 1289 1045 176747 689 2471 2826 1818 2202 378 54205 130511 174452 2123 70415 130234 17615 2083 96564 119473 1789 134747 129164 17518 14963 4512 125198 4920 71255 38977
internal_value=-1.52972e-05 -0.0496781 0.0767751 0.0523979 0.112845 -0.0162696 -0.0270791 -0.0697561 -0.0741334 0.0694313 -0.0295527 0.100564 0.0648328 0.032596 0.0312114 0.0906336 0.140833 0.095671 0.136117 0.00297429 -0.0480408 -0.0215167 -0.0397105 -0.0408613 -0.0528438 -0.0399679 -0.0569988 0.105651 0.00411398 -0.0459269
internal_weight=2.37815e+06 1.44416e+06 933987 557329 376658 542118 347130 902047 716579 8670 338460 261790 351199 4325 206130 131279 114868 7381 97253 194988 4260 188952 149508 146682 185468 45307 140161 7003 190728 43489
internal_count=2378152 1444165 933987 557329 376658 542118 347130 902047 716579 8670 338460 261790 351199 4325 206130 131279 114868 7381 97253 194988 4260 188952 149508 146682 185468 45307 140161 7003 190728 43489
cat_boundaries=0 1 3 5 7 9 10 11 12 13
cat_threshold=318773160 272105472 1573384 2361090119 1 855641888 1 1626349569 1 541067264 2308 1074003968 4232
is_linear=0
shrinkage=0.05


Tree=13
num_leaves=31
num_cat=9
split_feature=33 33 33 33 32 32 32 8 27 35 32 32 33 8 32 32 3 32 8 5 8 39 8 5 35 8 5 3 8 28
split_gain=3.27801e+06 370784 280074 57139.3 40623.3 36237.2 31194.6 29509.7 17479.4 12293.3 9557.45 9555.95 8759.28 7945.92 6493.66 5146.26 4729.3 4601.46 3885.68 8317.54 16398 3777.25 7710.44 5146.07 8252.62 3667.37 10164.2 11199.2 10999.4 3651.79
threshold=44.572286605834968 4.0037143230438241 557.46420288085949 156.00093078613284 15.433035850524904 2195.0178222656255 1.4409722089767458 0 1.0000000180025095e-35 1 7.6301481723785409 293.95484924316412 85.04178619384767 2 1092.802917480469 0.15099715441465381 1.5000000000000002 5697.8137207031259 3 96.320000000000007 4 3.5000000000000004 5 95.370000000000019 6 7 96.670000000000016 16.500000000000004 8 215.40950775146487
decision_type=10 8 8 10 10 10 10 1 2 1 10 10 10 1 10 10 2 10 1 2 1 2 1 2 1 1 2 2 1 8
left_child=1 6 3 12 7 14 8 9 15 -3 29 25 -2 -10 -4 21 -11 -7 -6 -20 -21 22 23 24 -1 26 -5 28 -28 -9
right_child=2 4 5 11 18 17 -8 10 13 16 -12 -13 -14 -15 -16 -17 -18 -19 19 20 -22 -23 -24 -25 -26 -27 27 -29 -30 -31
leaf_value=-0.07020687883204603 0.024896058973296786 -0.075993937425977917 0.0925903035842187 0.054953572447096782 0.013463563210601935 0.13002563508532441 -0.046631602548432988 -0.031783370558569377 0.098886261203558215 -0.081673290775788415 -0.017187085735994572 0.076872352030155522 0.043701954490572924 -0.029412600028363451 0.11016057039906524 -0.063103215936084839 0.10134390052687714 0.15626764805474905 0.0032518730329704586 -0.002321070459032798 -0.13361463791135661 -0.073766645428500019 -0.061801182076140229 -0.084144286665907675 0.19336020382810992 0.062994107075418429 0.036323898295826586 0.054679715407125407 -0.20217675188179107 -0.054622419716309649
leaf_weight=459 107987 1271 130899 29024 76672 87160 177854 151500 2045 371 151651 144158 145157 2915 87986 177682 7002 20705 112609 7942 3386 542759 25697 542 818 157813 780 1989 1263 19790
leaf_count=459 107987 1271 130899 29024 76672 87160 177854 151500 2045 371 151651 144158 145157 2915 87986 177682 7002 20705 112609 7942 3386 542759 25697 542 818 157813 780 1989 1263 19790
internal_value=-6.50653e-06 -0.0464317 0.0742277 0.0536084 -0.0131428 0.111344 -0.0654656 -0.0238876 -0.0699145 0.0672333 -0.0263281 0.0671551 0.0356798 0.0236341 0.0996536 -0.0705349 0.0920001 0.135064 0.00461727 -0.000856448 -0.0416937 -0.0728503 -0.0547726 0.0445946 0.0996075 0.0598155 0.0446064 -0.0297616 -0.111957 -0.0344224
internal_weight=2.37789e+06 1.46296e+06 914921 588171 532194 326750 930771 331585 752917 8644 322941 335027 253144 4960 218885 747957 7373 107865 200609 123937 11328 570275 27516 1819 1277 190869 33056 4032 2043 171290
internal_count=2377886 1462965 914921 588171 532194 326750 930771 331585 752917 8644 322941 335027 253144 4960 218885 747957 7373 107865 200609 123937 11328 570275 27516 1819 1277 190869 33056 4032 2043 171290
cat_boundaries=0 1 3 4 6 7 8 10 12 13
cat_threshold=318773160 272105472 1573384 1933844392 1895836928 1 7340545 1074003968 322437120 1573376 3225788480 1 4194304
is_linear=0
shrinkage=0.05


Tree=14
num_leaves=31
num_cat=9
split_feature=29 33 29 30 8 33 30 27 28 33 28 8 30 33 8 35 33 29 30 28 33 24 8 40 3 35 24 8 5 5
split_gain=2.97725e+06 302812 278170 46958.2 45254.5 44320.7 35237.3 17518.9 16695.9 11279.8 9620.82 9205.02 8641.77 7755.77 6557.29 7644.15 6060.97 5698.46 5580.6 5222.1 4952.88 4056.68 9707.3 18010 15434.7 12461.4 9542.7 12144.4 5148.11 9562.55
threshold=33.003499984741218 2.5781428813934331 395.02499389648443 1430.5000000000002 0 108.2900733947754 9.0089998245239276 1.0000000180025095e-35 143.94749450683597 0.44135715067386633 81.015998840332045 1 190.00450134277347 3295.1757812500005 2 3 14.574142932891847 721.03350830078136 47.00849914550782 288.00599670410162 6.5770714282989511 4 5 2013.5000000000002 16.500000000000004 6 7 8 102.90500000000002 57.905000000000008
decision_type=10 8 8 10 1 8 10 2 10 10 8 1 10 8 1 1 8 10 10 10 10 1 1 2 2 1 1 1 2 2
left_child=1 7 5 17 8 18 10 9 14 21 20 -9 -7 19 15 -3 -8 -4 -2 -5 -6 22 23 -1 25 -25 27 -27 29 -28
right_child=2 4 3 13 6 12 16 11 -10 -11 -12 -13 -14 -15 -16 -17 -18 -19 -20 -21 -22 -23 -24 24 -26 26 28 -29 -30 -31
leaf_value=-0.073114006734482803 0.015314094645588689 -0.098318668974547829 0.079986182257296909 -0.0078098339537907074 -0.036379370104609746 0.048016839501287538 -0.01614599753121233 0.10103670666053728 0.093024015866827015 -0.053878499670221625 -0.066374239055693771 -0.022334787701403791 0.063650521909697014 0.13697184231276532 0.009435812950192678 0.12131467624488651 0.00077258052377396933 0.095312493974870127 0.033006075517191653 0.11489822802171107 -0.023049589388718768 -0.071397115441216671 -0.068591042954523493 -0.070912259989934112 -0.070914026866591776 0.15918855470063287 -0.07336664995182883 0.023409831544110603 -0.061931505704554884 0.055745657289028222
leaf_weight=33870 69870 465 128343 875 162983 165521 94025 2065 7675 181215 20218 5556 189756 58141 47815 2471 121135 115100 123120 93861 121754 375426 222148 4871 11062 2151 2164 6963 3695 4247
leaf_count=33870 69870 465 128343 875 162983 165521 94025 2065 7675 181215 20218 5556 189756 58141 47815 2471 121135 115100 123120 93861 121754 375426 222148 4871 11062 2151 2164 6963 3695 4247
internal_value=3.48344e-05 -0.0453667 0.0689587 0.100872 -0.0174276 0.0458895 -0.0221143 -0.0642623 0.0242934 -0.0649407 -0.0330463 0.0112063 0.0563671 0.122592 0.0139025 0.0862923 -0.00662089 0.0872328 0.026601 0.113765 -0.0306796 -0.0679478 -0.0634956 -0.0470879 -0.0220237 0.000427614 0.0185376 0.0556083 -0.0149185 0.0121598
internal_weight=2.37856e+06 1.43397e+06 944587 396320 578541 548267 520115 855433 58426 847812 304955 7621 355277 152877 50751 2936 215160 243443 192990 94736 284737 666597 291171 69023 35153 24091 19220 9114 10106 6411
internal_count=2378561 1433974 944587 396320 578541 548267 520115 855433 58426 847812 304955 7621 355277 152877 50751 2936 215160 243443 192990 94736 284737 666597 291171 69023 35153 24091 19220 9114 10106 6411
cat_boundaries=0 1 2 3 5 6 7 9 10 11
cat_threshold=1929650088 1392777128 4264 272105472 1573384 357 1208320064 272105472 1573376 321 1074003968
is_linear=0
shrinkage=0.05


Tree=15
num_leaves=31
num_cat=10
split_feature=29 33 29 29 30 8 30 27 28 32 32 32 8 29 33 8 8 24 40 8 24 32 29 24 40 8 33 27 1 28
split_gain=2.6852e+06 264634 258732 44873.3 41295.1 40387.5 31296.5 15394.8 15322.7 11591.1 8546.9 8293.46 8078.22 6786.34 6208.92 6032.57 5544.11 11766.7 15857.3 10663.2 6560.28 5505.98 4646.4 4272.27 4955.84 4707.19 4179.62 4022.75 3929.23 3884.13
threshold=31.005000114440922 2.4390000104904179 374.86149597167974 1339.9885253906252 99.327499389648452 0 8.0329999923706072 1.0000000180025095e-35 169.00699615478518 0.4331964254379273 41.072751998901374 2857.286743164063 1 184.08050537109378 12.872642517089846 2 3 4 2014.5000000000002 5 6 50.357732772827156 678.88098144531261 7 2015.5000000000002 8 5.8619287014007577 113.50000000000001 9 122.53049850463869
decision_type=10 8 8 10 10 1 10 2 10 10 8 8 1 10 8 1 1 1 2 1 1 8 10 1 2 1 10 2 1 10
left_child=1 7 4 16 21 8 10 9 15 -1 26 29 -9 -6 -8 27 17 18 19 -4 -21 -2 -18 24 25 -20 -7 -3 -17 -5
right_child=2 5 3 11 13 6 14 12 -10 -11 -12 -13 -14 -15 -16 28 22 -19 23 20 -22 -23 -24 -25 -26 -27 -28 -29 -30 -31
leaf_value=-0.065309643074699858 0.013970621453743262 0.0050160572516532512 0.04438745826809553 -0.027316743282278989 0.045272383337325306 -0.035943373071867686 -0.017690532396868117 0.093889532076128768 0.091212392669304129 -0.051819937930818197 -0.062998818539094822 0.12759059436299117 -0.022291567685750045 0.059404262726141827 -0.0010175579034520444 -0.079062891491727988 0.077186732718731638 0.084792228372143216 -0.20795258876444264 0.079847171174934811 -0.21427758272509873 0.030940943371754882 0.091917267031846689 0.081251430334766575 0.045615410519455966 0.01478772357341236 -0.023443305648556081 0.28358893907987154 0.067154404824185485 0.10580223755798329
leaf_weight=626705 76790 41539 901 551 155890 144682 95133 2088 7196 213526 21397 74385 5201 186754 135182 488 111115 19432 429 220 1316 126600 103421 5081 2559 519 124366 129 6332 88759
leaf_count=626705 76790 41539 901 551 155890 144682 95133 2088 7196 213526 21397 74385 5201 186754 135182 488 111115 19432 429 220 1316 126600 103421 5081 2559 519 124366 129 6332 88759
internal_value=2.14764e-05 -0.0434774 0.0648999 0.0949863 0.0423811 -0.0173414 -0.0216689 -0.061254 0.0231295 -0.0618816 -0.0325844 0.115256 0.0110961 0.0529749 -0.00790448 0.0130286 0.0814428 0.0613772 0.020064 -0.0924612 -0.171882 0.0245339 0.0842843 0.0520254 0.00941268 -0.0881577 -0.0301654 0.00588386 0.0565815 0.104981
internal_weight=2.37869e+06 1.42396e+06 954722 408688 546034 576444 520760 847520 55684 840231 290445 163695 7289 342644 230315 48488 244993 30457 11025 2437 1536 203390 214536 8588 3507 948 269048 41668 6820 89310
internal_count=2378686 1423964 954722 408688 546034 576444 520760 847520 55684 840231 290445 163695 7289 342644 230315 48488 244993 30457 11025 2437 1536 203390 214536 8588 3507 948 269048 41668 6820 89310
cat_boundaries=0 1 2 3 4 5 6 7 8 9 10
cat_threshold=1929650088 1929649064 1879313408 3225782272 139 4196352 1 1 1074003968 83968
is_linear=0
shrinkage=0.05


Tree=16
num_leaves=31
num_cat=11
split_feature=29 32 29 30 32 29 8 27 35 32 8 29 24 32 31 8 30 29 24 23 8 35 3 24 8 3 32 29 27 8
split_gain=2.42576e+06 260821 214554 37761.6 36900.2 31100.6 17721.6 13305.6 12659.7 12213.6 11459.5 10556 10083.8 7063.48 6948.98 6814.21 6095.91 5795.62 5747.42 5626.55 5376.93 5141.82 4849.79 4470.81 4598.59 4093.35 3898.19 3847.35 3777.14 3704.87
threshold=37.007499694824226 3.0727512836456303 480.01651000976568 139.15550231933597 10.970749855041506 2112.0000000000005 0 1.0000000180025095e-35 1 0.4331964254379273 2 2.0190000534057622 3 72.391769409179702 2.222527384757996 4 1036.0104980468752 265.04400634765631 5 1.0000000180025095e-35 6 7 1.5000000000000002 8 9 22.500000000000004 19.715017318725589 5868.3999023437509 1.0000000180025095e-35 10
decision_type=10 8 8 10 10 10 1 2 1 10 1 8 1 8 10 1 10 10 1 2 1 1 2 1 1 2 10 10 2 1
left_child=1 7 3 13 6 16 8 9 -3 -1 12 18 21 -2 23 -9 -4 -5 20 -16 -12 -6 -10 -8 -25 -23 -13 -7 -20 -14
right_child=2 4 5 17 10 27 14 15 22 -11 11 26 29 -15 19 -17 -18 -19 28 -21 -22 25 -24 24 -26 -27 -28 -29 -30 -31
leaf_value=-0.062030276494376681 0.019668304416412086 -0.061433858639041973 0.077902980213548592 0.049834803847600972 0.025693158645231941 0.11181140504391912 0.013039261452867761 0.087247125096475475 -0.088069715868772533 -0.048500530272733891 0.043460017939604315 -0.0080710910610023931 -0.047340247643217002 0.036759529719722454 -0.030493845088488625 -0.019794690435853825 0.094150814362005675 0.063357321327957378 -0.06892186049128092 -0.014927979151208618 -0.045988590643408926 0.10249022715983691 0.08102375086240976 -0.022346314913023971 -0.073379772420290923 -0.036952027090683737 0.004917525582603454 0.13593100453574902 0.061523000522552489 0.02029212215917623
leaf_weight=626423 100640 2363 150516 180221 5252 87364 2304 1934 450 227372 3158 108950 3462 151403 203797 6301 93713 141461 10887 81184 3565 6521 7143 6007 16970 572 122961 20427 584 4847
leaf_count=626423 100640 2363 150516 180221 5252 87364 2304 1934 450 227372 3158 108950 3462 151403 203797 6301 93713 141461 10887 81184 3565 6521 7143 6007 16970 572 122961 20427 584 4847
internal_value=2.52794e-05 -0.0402771 0.0632821 0.0444271 -0.0146922 0.0940119 -0.0261808 -0.0578172 0.0394572 -0.0584273 -0.00110499 -0.0040615 0.0346798 0.0299352 -0.0282876 0.00543365 0.0841378 0.0557816 -0.0407343 -0.0260596 -0.00396947 0.0633288 0.0708988 -0.0534118 -0.0600549 0.0911131 -0.00118443 0.116383 -0.0622218 -0.00791269
internal_weight=2.37875e+06 1.45301e+06 925745 573725 590977 352020 320218 862030 9956 853795 270759 250105 20654 252043 310262 8235 244229 321682 18194 284981 6723 12345 7593 25281 22977 7093 231911 107791 11471 8309
internal_count=2378752 1453007 925745 573725 590977 352020 320218 862030 9956 853795 270759 250105 20654 252043 310262 8235 244229 321682 18194 284981 6723 12345 7593 25281 22977 7093 231911 107791 11471 8309
cat_boundaries=0 1 3 4 5 6 7 9 11 12 14 15
cat_threshold=855646120 2419589120 1573384 1392514984 357 1396971432 261 537233408 1 2737207808 2097156 260 6299653 1 1073741824
is_linear=0
shrinkage=0.05


Tree=17
num_leaves=31
num_cat=12
split_feature=29 29 33 29 33 8 29 27 28 32 32 8 28 29 8 5 24 32 8 35 8 5 24 8 24 28 29 24 8 32
split_gain=2.19169e+06 214841 212188 39030.1 33997.2 33843.1 25759.1 12631.6 12584.3 8217.08 7961.41 6698.12 6337.32 5382.8 5297.55 8848.59 5897.07 5154.25 5092.86 5356.64 4782.87 11484 15683.8 8954.79 6291.28 3969.2 3629.15 3574.22 12583 4035.94
threshold=30.015999794006351 355.02400207519537 2.2878571748733525 1234.3239746093752 105.15028762817384 0 8.0050001144409197 1.0000000180025095e-35 159.01100158691409 0.4331964254379273 2857.286743164063 1 87.001499176025405 179.00050354003909 2 96.670000000000016 3 13.53789281845093 4 5 6 96.320000000000007 7 8 9 77.001499176025405 626.01651000976574 10 11 12.193717479705812
decision_type=10 8 8 10 8 1 10 2 10 10 8 1 8 10 1 2 1 8 1 1 1 2 1 1 1 10 10 1 1 10
left_child=2 4 7 20 14 8 12 9 18 -1 25 -9 -7 -6 -2 -16 -17 -8 19 -4 21 24 23 -23 -3 -5 -22 28 29 -11
right_child=1 3 5 10 13 6 17 11 -10 27 -12 -13 -14 -15 15 16 -18 -19 -20 -21 26 22 -24 -25 -26 -27 -28 -29 -30 -31
leaf_value=-0.058933121326609932 0.025565577514426414 0.0062049330760908239 -0.078855264587188834 -0.034672869121658942 0.040220162864960891 -0.027826135471906929 -0.015892442820521678 0.083061803619113805 0.082380298259550372 0.0083388751982947668 0.11546728093531018 -0.021908467767196588 -0.056954669476250802 0.052933693214285649 0.011827705702449535 -0.13584977575184184 0.013652856352647295 -0.00077577516328677151 0.0082910478274583841 0.12471188144451269 0.068378950346665454 0.066883632219913933 0.073850110455240134 -0.20821282615107073 0.073946423161884198 0.094691798897106327 0.081380713166673904 -0.050476793751864063 -0.046011286599645505 0.10113859040119376
leaf_weight=626804 157700 4011 391 596 152047 276558 101073 2212 7319 4234 74689 4795 20025 184084 42083 1747 1060 127547 44826 1742 106959 385 1661 1253 24068 100315 107860 168742 30629 1619
leaf_count=626804 157700 4011 391 596 152047 276558 101073 2212 7319 4234 74689 4795 20025 184084 42083 1747 1060 127547 44826 1742 106959 385 1661 1253 24068 100315 107860 168742 30629 1619
internal_value=3.49373e-05 0.0583557 -0.0394558 0.08508 0.0374316 -0.0161864 -0.0200707 -0.0555268 0.0213983 -0.0560898 0.10309 0.0113234 -0.0297931 0.0471829 0.0212523 0.00609241 -0.0798439 -0.0074589 0.0118966 0.0871829 0.0722342 0.0539136 -0.0343084 -0.143539 0.0642989 0.0939274 0.074904 -0.0474052 -0.0331742 0.0339631
internal_weight=2.37903e+06 960518 1.41852e+06 421797 538721 579481 525203 839035 54278 832028 175600 7007 296583 336131 202590 44890 2807 228620 46959 2133 246197 31378 3299 1638 28079 100911 214819 205224 36482 5853
internal_count=2379034 960518 1418516 421797 538721 579481 525203 839035 54278 832028 175600 7007 296583 336131 202590 44890 2807 228620 46959 2133 246197 31378 3299 1638 28079 100911 214819 205224 36482 5853
cat_boundaries=0 1 2 4 5 6 8 9 10 11 12 13 14
cat_threshold=1929650088 1933876136 1933586208 1 138 4232 808976384 1573384 3225790464 138 4196352 1 260 1074626624
is_linear=0
shrinkage=0.05


Tree=18
num_leaves=31
num_cat=2
split_feature=29 32 30 32 30 32 28 27 32 29 24 29 29 3 23 30 31 28 27 32 29 28 28 39 40 35 3 28 40 28
split_gain=1.97465e+06 193840 191474 33804.6 29295.3 27057 13439.8 10809.6 8449.07 6572.23 9315.99 6351.17 5891.5 5812.84 4889.7 4592.29 4121.65 4024.51 3831.9 3632.23 3408.81 3374.45 3083.51 2890.94 2999.11 3670.47 4358.24 2839.16 2815.77 2733.27
threshold=31.005000114440922 2.7878215312957768 410.01249694824224 109.86606979370119 2114.223510742188 10.614464282989504 560.00650024414074 1.0000000180025095e-35 0.36375661194324499 1.0000000180025095e-35 0 920.14199829101574 193.00599670410159 22.500000000000004 1.0000000180025095e-35 61.018499374389656 1.0000000180025095e-35 538.95599365234386 1.0000000180025095e-35 28.001338958740238 6584.1149902343759 22.031499862670902 10.004499912261965 3.5000000000000004 2014.5000000000002 1 17.500000000000004 1.0000000180025095e-35 2014.5000000000002 107.18600082397462
decision_type=10 8 10 8 10 10 8 2 10 8 1 10 10 2 2 10 10 8 2 10 10 8 10 2 2 1 2 8 2 8
left_child=1 7 3 15 11 14 9 8 23 10 13 29 -5 28 -3 -2 -9 -6 -12 27 -19 -14 -10 24 25 -1 -27 -11 -7 -4
right_child=2 5 4 12 17 6 -8 16 22 19 18 -13 21 -15 -16 -17 -18 20 -20 -21 -22 -23 -24 -25 -26 26 -28 -29 -30 -31
leaf_value=-0.057630034339958239 0.014410676109713623 -0.02824320938135463 0.011517332593656412 0.039432898730413085 0.0028852756441322073 0.056226139551880688 0.089101632165574138 0.054765121025775576 -0.045434361539269677 -0.053649297816729058 -0.066058421143172286 0.083549370778719823 -0.027340270192767625 -0.0773342858481013 -0.014704115476741953 0.029419568574008195 -0.021351755385083118 0.10253542106828561 0.073818323508567124 0.0095708017962765537 0.12801902189069053 0.052729883761807497 0.0087769123879015767 -0.056894172934305869 -0.059498127900394465 0.010436270878478295 -0.058953242191959215 -0.0043127364218462482 -0.008059360376477245 0.06888197678289297
leaf_weight=6348 113840 234560 2104 164208 950 3936 3937 2812 222752 2967 11300 113261 1324 1598 93184 92281 4835 89843 511 55395 15390 199532 2654 583423 12602 7744 3196 166571 3002 161512
leaf_count=6348 113840 234560 2104 164208 950 3936 3937 2812 222752 2967 11300 113261 1324 1598 93184 92281 4835 89843 511 55395 15390 199532 2654 583423 12602 7744 3196 166571 3002 161512
internal_value=9.64916e-06 -0.0373004 0.0556603 0.0373185 0.0830098 -0.014952 -0.00253503 -0.0525351 -0.0530746 -0.00400625 -0.0312182 0.0744463 0.0464585 0.0085998 -0.0243938 0.0211303 0.00664189 0.105339 -0.0599502 -0.00154458 0.106263 0.0522019 -0.044796 -0.0561171 -0.0409477 -0.0274229 -0.00982966 -0.00517646 0.0284133 0.0681444
internal_weight=2.37757e+06 1.42333e+06 954245 571185 383060 576961 249217 846366 838719 245280 20347 276877 365064 8536 327744 206121 7647 106183 11811 224933 105233 200856 225406 613313 29890 17288 10940 169538 6938 163616
internal_count=2377572 1423327 954245 571185 383060 576961 249217 846366 838719 245280 20347 276877 365064 8536 327744 206121 7647 106183 11811 224933 105233 200856 225406 613313 29890 17288 10940 169538 6938 163616
cat_boundaries=0 1 3
cat_threshold=261 2469920768 1573388
is_linear=0
shrinkage=0.05


Tree=19
num_leaves=31
num_cat=5
split_feature=29 32 29 29 32 29 31 28 29 24 30 5 30 23 30 28 40 30 24 5 35 3 24 5 31 30 31 28 35 32
split_gain=1.7838e+06 192504 158570 29741.5 22034.4 21790.2 14751 10890.1 6862.06 8039.62 5723.09 5696.61 5378.92 4733.73 4429.79 3301.82 3126.57 2988.4 2926.04 7033.91 7465.18 6658 3440.9 3971.58 2885.16 2866.05 2739.42 2656.84 2625.15 2464.46
threshold=37.007499694824226 3.9348739385604863 507.09799194335943 141.00700378417972 14.929535865783693 2268.305053710938 1.2182539701461794 632.18408203125011 1.0000000180025095e-35 0 71.00949859619142 50.335000000000008 286.00549316406256 1.0000000180025095e-35 1036.0104980468752 549.08749389648449 2013.5000000000002 5839.5534667968759 1 57.905000000000008 2 17.500000000000004 3 102.90500000000002 11.510928630828859 6482.8735351562509 8.3708786964416522 24.003499984741214 4 30.036375999450687
decision_type=10 8 8 10 10 10 10 10 8 1 10 2 10 2 10 8 2 10 1 2 1 2 1 2 10 8 8 8 1 10
left_child=1 6 3 10 13 14 16 8 9 11 -2 25 27 26 -4 -7 -1 -17 19 -18 -21 22 23 -22 -13 -6 -3 -5 -24 -10
right_child=2 4 5 12 7 15 -8 -9 29 -11 -12 24 -14 -15 -16 17 18 -19 -20 20 21 -23 28 -25 -26 -27 -28 -29 -30 -31
leaf_value=-0.056220133340671767 0.016966187321763884 -0.027596456676664622 0.067446536035221286 -0.011485892656123157 -0.074863009399598959 -0.0075316412250623251 -0.035346272979974856 0.088138795612771062 -0.0011603651850544963 -0.057447012903857925 0.03216929974960462 0.099034961032232749 0.055986213209646953 -0.0095586130043953058 0.081208062644825232 0.097446486795636916 -0.054371770356209992 0.11906660276932451 -0.052249317999972358 -0.05641829155030096 -0.0016004549673818407 -0.04758002032279332 0.018914566635686532 -0.05235110793880976 0.016046640041899124 0.02252069561052748 -0.016894707873571939 0.043662775252867631 -0.014353960180255317 0.010879699129512532
leaf_weight=252346 110265 131114 138443 2208 2150 695 169453 3580 121185 10544 141146 1619 134726 95434 101325 79121 85130 20063 313555 26463 6639 20899 9790 9192 2964 1164 109953 197139 15001 65458
leaf_count=252346 110265 131114 138443 2208 2150 695 169453 3580 121185 10544 141146 1619 134726 95434 101325 79121 85130 20063 313555 26463 6639 20899 9790 9192 2964 1164 109953 197139 15001 65458
internal_value=-1.5369e-05 -0.0345569 0.0542587 0.0384921 -0.0110684 0.081437 -0.0486521 0.00169673 0.000187348 -0.0289086 0.0255015 0.00925913 0.0482682 -0.0189841 0.0732624 0.10106 -0.051703 0.101821 -0.0493607 -0.0441228 -0.0342107 -0.0246443 -0.0128496 -0.0310498 0.0453785 -0.0406618 -0.0227154 0.0430519 -0.00121361 0.00306227
internal_weight=2.37876e+06 1.45363e+06 925131 585484 545165 339647 908468 208664 205084 18441 251411 7897 334073 336501 239768 99879 739015 99184 486669 173114 87984 61521 40622 15831 4583 3314 241067 199347 24791 186643
internal_count=2378764 1453633 925131 585484 545165 339647 908468 208664 205084 18441 251411 7897 334073 336501 239768 99879 739015 99184 486669 173114 87984 61521 40622 15831 4583 3314 241067 199347 24791 186643
cat_boundaries=0 1 2 4 5 7
cat_threshold=261 353 2419589120 524804 32 132598 522354
is_linear=0
shrinkage=0.05


Tree=20
num_leaves=31
num_cat=4
split_feature=32 32 31 31 30 30 27 32 30 24 39 0 5 24 40 30 30 27 30 30 27 23 31 24 39 0 27 10 24 27
split_gain=1.6001e+06 161715 153493 30239.4 26290.2 17150.8 9892.73 8775.89 5567.5 5157.62 5266.36 7389.13 4637.03 9940.91 5040.55 4219.87 4069.89 4046.77 4011.89 3523.95 3094.84 2906.5 2905.99 2871.75 4236.16 6539.02 2797.98 4561.88 3715.05 2525.16
threshold=33.71582221984864 341.57907104492193 3.0734285116195683 1311.6748657226565 85.002498626708999 11.00399971008301 1.5000000000000002 0.50925925374031078 2627.037475585938 0 51.500000000000007 1.0000000180025095e-35 96.320000000000007 1 2013.5000000000002 515.04998779296886 184.0100021362305 1.0000000180025095e-35 355.07150268554693 35.01049995422364 1.0000000180025095e-35 1.0000000180025095e-35 8.3708786964416522 2 51.500000000000007 1.0000000180025095e-35 1.0000000180025095e-35 1.0000000180025095e-35 3 1.0000000180025095e-35
decision_type=10 8 8 10 8 10 2 10 8 1 2 2 2 1 2 8 8 2 10 10 2 2 10 1 2 2 2 2 1 2
left_child=2 4 6 15 19 17 7 -1 -5 10 20 -12 18 14 -14 -3 -11 22 21 29 -6 -7 -4 24 -17 -26 27 28 -10 -2
right_child=1 3 5 8 9 12 -8 -9 26 16 11 -13 13 -15 -16 23 -18 -19 -20 -21 -22 -23 -24 -25 25 -27 -28 -29 -30 -31
leaf_value=-0.050343065861544162 -0.00026257609544282838 0.053450719910983574 -0.024578728869190856 0.079677042885907365 0.025871937500920462 -0.0038910889848377283 0.044455622895541703 -0.038897954752794582 0.060514025230800461 0.036865377331941174 0.051760976316748177 -0.20912962224505366 0.0045712885552878146 0.0053975541310130049 -0.067455780231306064 0.058727406993379985 0.049964654188762878 0.00054372845490770086 0.093473904308733313 0.0201463266856996 0.043166881133690743 0.0097237733209239244 -0.014103338101792533 0.071249169302189372 0.081639614786852055 -0.26104350497967393 0.103379988058549 -0.20308089247710415 0.10253101544741546 0.026451390149349635
leaf_weight=639277 44793 99268 219313 84501 80573 105854 2944 226983 9440 123369 540 544 3148 18080 10632 57193 114211 22480 1184 123785 38103 62252 94841 109453 295 262 61340 138 12294 11022
leaf_count=639277 44793 99268 219313 84501 80573 105854 2944 226983 9440 123369 540 544 3148 18080 10632 57193 114211 22480 1184 123785 38103 62252 94841 109453 295 262 61340 138 12294 11022
internal_value=3.05439e-05 0.0493973 -0.0340431 0.0720873 0.0310495 -0.0130476 -0.0470332 -0.0473442 0.0887203 0.0388931 0.0304202 -0.0792377 -0.00149642 -0.0189955 -0.0509653 0.0616184 0.0431609 -0.0199499 0.00179696 0.0154434 0.0314251 0.00115071 -0.0214163 0.0664672 0.0573807 -0.0797296 0.0979026 0.0825371 0.0843599 0.00501311
internal_weight=2.37811e+06 971124 1.40699e+06 434184 536940 537784 869204 866260 167713 357340 119760 1084 201150 31860 13780 266471 237580 336634 169290 179600 118676 168106 314154 167203 57750 557 83212 21872 21734 55815
internal_count=2378112 971124 1406988 434184 536940 537784 869204 866260 167713 357340 119760 1084 201150 31860 13780 266471 237580 336634 169290 179600 118676 168106 314154 167203 57750 557 83212 21872 21734 55815
cat_boundaries=0 1 2 3 4
cat_threshold=139 138 139 139
is_linear=0
shrinkage=0.05


Tree=21
num_leaves=31
num_cat=10
split_feature=29 29 33 30 8 33 30 27 28 32 5 8 8 35 8 29 32 3 28 30 8 5 24 8 27 30 17 24 8 32
split_gain=1.45552e+06 151064 133688 27813.6 26056.6 24448.6 16985.9 9312.21 9231.3 6158.94 5493.95 21729.8 5444.11 9284.07 5391.57 5255.87 4832.23 4575.87 4290.47 4115.17 3858.82 7148.99 5693.26 3619.52 3536.05 3208.64 3101.88 2948.21 11619.8 3377.47
threshold=27.006500244140629 337.06449890136724 2.154761910438538 1240.8015136718752 0 93.722644805908217 7.0099999904632577 1.0000000180025095e-35 131.91149902343753 33.71582221984864 96.320000000000007 1 2 3 4 3074.0000000000005 0.1132478639483452 28.500000000000004 63.006000518798835 149.32100677490237 5 96.670000000000016 6 7 113.50000000000001 565.72000122070324 1.0000000180025095e-35 8 9 9.1455030441284197
decision_type=10 8 8 10 1 8 10 2 10 8 2 1 1 1 1 10 10 2 8 8 1 2 1 1 2 8 2 1 1 10
left_child=2 5 7 18 8 20 9 16 12 -6 -8 17 24 -14 -9 -5 -1 -12 23 -7 21 -2 -23 -3 -4 -20 -15 28 29 -18
right_child=1 3 4 15 6 19 10 14 -10 -11 11 -13 13 26 -16 -17 27 -19 25 -21 -22 22 -24 -25 -26 -27 -28 -29 -30 -31
leaf_value=-0.048591495423369033 0.0081533288689121415 -0.13131769975880161 0.0025861233506075123 0.07756826606161811 -0.02352088783796575 0.030149679751640592 -0.0045314888725885164 0.080925852514337759 0.070183098980431083 -0.051154630266962389 -0.12138361483289135 -0.0053245135022316082 -0.088904102929243098 0.088725376171916739 -0.016452940737608942 0.095562583679740284 0.0080379027464803424 0.0039593298391422194 0.053135007179223918 0.041441278602936643 0.019242528333578673 -0.12218950215299623 0.012868253157893106 0.026296558917673785 0.26283673530316537 0.064276258714726309 -0.07206120236162214 -0.042827763152031025 -0.040143020561549919 0.084497244204610716
leaf_weight=562649 45692 501 35582 106046 260956 127945 205849 2033 7857 21852 5980 25127 961 5094 4660 65791 5859 829 120946 218544 148763 1952 1299 1255 130 138901 318 214098 38471 1916
leaf_count=562649 45692 501 35582 106046 260956 127945 205849 2033 7857 21852 5980 25127 961 5094 4660 65791 5859 829 120946 218544 148763 1952 1299 1255 130 138901 318 214098 38471 1916
internal_value=-8.86052e-06 0.0468073 -0.0326959 0.0688302 -0.014065 0.0292664 -0.0173744 -0.0455075 0.0204313 -0.0256563 -0.0075251 -0.0268202 0.0111464 0.0536738 0.0132299 0.0844582 -0.0459852 -0.105969 0.0585644 0.0372718 0.0152364 0.0030549 -0.0685734 -0.0193188 0.00353984 0.0590908 0.0791201 -0.0403523 -0.0288756 0.0268538
internal_weight=2.37786e+06 977635 1.40022e+06 433440 570535 544195 520593 829686 49942 282808 237785 31936 42085 6373 6693 171837 822993 6809 261603 346489 197706 48943 3251 1756 35712 259847 5412 260344 46246 7775
internal_count=2377856 977635 1400221 433440 570535 544195 520593 829686 49942 282808 237785 31936 42085 6373 6693 171837 822993 6809 261603 346489 197706 48943 3251 1756 35712 259847 5412 260344 46246 7775
cat_boundaries=0 1 2 3 5 6 7 8 9 10 11
cat_threshold=1929650088 2349432896 1879313408 272105472 1573384 1392777128 2360180805 138 1074003968 260 1208844352
is_linear=0
shrinkage=0.05


Tree=22
num_leaves=31
num_cat=15
split_feature=29 33 29 32 8 29 33 29 27 8 32 8 24 40 24 8 8 24 40 8 3 8 24 40 8 40 24 8 24 40
split_gain=1.31465e+06 148722 114124 21112.9 20527.1 15956.5 14341 13813.3 8923.85 7684.83 6796.54 4497.01 10765.7 16795.5 7230 4472.23 4030.07 3980.51 5392.17 18437.5 4854.11 3840.83 9487.77 22405 10694.1 3934.69 7630.1 4830.16 3676.29 5111.87
threshold=39.192501068115241 4.4603569507598886 516.02951049804699 157.43869781494143 0 2112.0000000000005 1.0714285969734194 9.0054998397827166 1.0000000180025095e-35 1 66.677001953125014 2 3 2014.5000000000002 4 5 6 7 2014.5000000000002 8 21.500000000000004 9 10 2014.5000000000002 11 2015.5000000000002 12 13 14 2015.5000000000002
decision_type=10 8 8 8 1 10 8 10 2 1 8 1 1 2 1 1 1 1 2 1 2 1 1 2 1 2 1 1 1 2
left_child=1 6 3 15 9 11 8 10 -1 -3 -6 12 13 14 -4 -2 -10 18 19 20 -9 22 23 24 -5 26 27 -25 29 -15
right_child=2 4 5 21 7 -7 -8 17 16 -11 -12 -13 -14 28 -16 -17 -18 -19 -20 -21 -22 -23 -24 25 -26 -27 -28 -29 -30 -31
leaf_value=-0.044823385915789132 0.026062110104011906 0.0775387988999931 0.021769339095900845 -0.18565547784477779 -0.01766892206316778 0.086036757343272846 -0.029636811135783311 -0.12192587699695334 0.074432846611494227 0.013674674992237007 -0.047392693918893364 0.065199460655877062 0.067632670381844867 -0.11481072233155357 -0.18778138081959383 0.0089758267668163597 -0.018972649221296864 0.0015935317871805254 -0.0044942632527199119 -0.0019264757786307902 0.0087679031459629193 0.044402342906767006 0.045377066735191832 -0.20241387881525982 0.028725092499078737 0.040323821079253593 0.044583920885856124 0.01592629855795212 0.064105259530238656 0.030731053484059315
leaf_weight=734706 215311 5108 582 2128 191292 107494 212038 5531 2163 59291 21381 202494 16472 808 1421 46628 2459 155186 57474 13696 815 273954 29170 728 802 9968 1523 391 4458 2372
leaf_count=734706 215311 5108 582 2128 191292 107494 212038 5531 2163 59291 21381 202494 16472 808 1421 46628 2459 155186 57474 13696 815 273954 29170 728 802 9968 1523 391 4458 2372
internal_value=2.45035e-05 -0.0294232 0.0469613 0.0335386 -0.00763116 0.0701485 -0.0411001 -0.0114463 -0.0443877 0.0187526 -0.0206574 0.0626773 0.0430763 0.00109155 -0.127741 0.0230219 0.0248658 -0.0030285 -0.0122803 -0.0346129 -0.104977 0.0421831 0.0285679 -0.00299435 -0.127521 0.0259455 -0.0282973 -0.126709 0.0348906 -0.00625418
internal_weight=2.37784e+06 1.46114e+06 916704 580603 509774 336101 951366 445375 739328 64399 212673 228607 26113 9641 2003 261939 4622 232702 77516 20042 6346 318664 44710 15540 2930 12610 2642 1119 7638 3180
internal_count=2377844 1461140 916704 580603 509774 336101 951366 445375 739328 64399 212673 228607 26113 9641 2003 261939 4622 232702 77516 20042 6346 318664 44710 15540 2930 12610 2642 1119 7638 3180
cat_boundaries=0 1 2 3 4 5 7 8 9 10 11 12 13 14 15 16
cat_threshold=1929387944 4264 1078298624 139 1 1933578016 1 1933939624 139 2357821504 3360530496 139 1074003968 1 1074003968 1
is_linear=0
shrinkage=0.05


Tree=23
num_leaves=31
num_cat=13
split_feature=29 29 33 29 8 30 33 27 35 32 27 32 8 5 24 26 8 24 5 8 24 40 8 29 8 4 28 24 5 8
split_gain=1.18783e+06 126477 106629 24225.1 21492 20193.6 16937.1 8065.89 5605.54 5223.45 4478.05 4085.53 3789.37 25008 8696.77 3652.21 3645.63 8701.44 13084.9 7462.96 3640.11 4899.92 3448.41 3255.27 3123.43 8431.55 3455.34 3351.29 6146.64 12498.3
threshold=26.003499984741214 320.39649963378912 2.154761910438538 1114.174499511719 0 81.004501342773452 8.2984285354614276 1.5000000000000002 1 2712.245727539063 1.0000000180025095e-35 0.1132478639483452 2 95.520000000000024 3 1.0000000180025095e-35 4 5 96.670000000000016 6 7 2015.5000000000002 8 161.00299835205081 9 10 154.00700378417972 11 97.220000000000013 12
decision_type=10 10 8 10 1 8 10 2 1 8 2 10 1 2 1 2 1 1 2 1 1 2 1 10 1 1 8 1 2 1
left_child=2 5 7 16 8 -2 15 11 -4 -5 24 -1 13 20 -15 -6 17 18 -3 -20 21 22 -7 -14 25 -8 27 28 -26 -30
right_child=1 3 4 9 6 12 10 -9 -10 -11 -12 -13 23 14 -16 -17 -18 -19 19 -21 -22 -23 -24 -25 26 -27 -28 -29 29 -31
leaf_value=-0.04377587125185485 0.012808133221421374 0.024515579491064997 -0.010463423295232298 0.068085260140463177 -0.01382550035832782 -0.002457361844903078 -0.070275299207892702 0.048646640710075406 0.070756035660344219 0.084822955599409347 0.011872130546192025 -0.036227847311000753 0.02927022520063929 -0.17396044125250471 0.031955242028153426 -0.026278179370116103 0.05402345825184246 0.055117995956033707 0.047202972727193988 -0.17897824781492008 0.035149627392296406 0.019941153825935223 -0.18690627160089568 0.039586866809166114 -0.0081269111243416313 -0.0023729067263054998 0.055857418540237569 -0.0019587914124921646 -0.10448232276627525 -0.0070238768285066297
leaf_weight=563689 193662 10396 2739 109647 82360 447 7099 2495 9500 81142 33560 262947 142477 2146 675 206570 221236 22281 496 1365 30712 2437 594 165079 57035 12820 2241 136087 5409 8388
leaf_count=563689 193662 10396 2739 109647 82360 447 7099 2495 9500 81142 33560 262947 142477 2146 675 206570 221236 22281 496 1365 30712 2437 594 165079 57035 12820 2241 136087 5409 8388
internal_value=1.83019e-05 0.0420482 -0.0296964 0.0617201 -0.0129204 0.0257266 -0.0143748 -0.041104 0.0525866 0.0752042 -0.00518517 -0.0413749 0.0329873 0.0178543 -0.125199 -0.0227286 0.0516617 0.0365057 0.00265294 -0.11941 0.0296661 -0.0187983 -0.109601 0.0348066 -0.0076841 -0.0265983 -0.00588117 -0.00655037 -0.0153694 -0.0453173
internal_weight=2.37773e+06 984792 1.39294e+06 446563 563808 538229 551569 829131 12239 190789 262639 826636 344567 37011 2821 288930 255774 34538 12257 1861 34190 3478 1041 307556 229079 19919 209160 206919 70832 13797
internal_count=2377731 984792 1392939 446563 563808 538229 551569 829131 12239 190789 262639 826636 344567 37011 2821 288930 255774 34538 12257 1861 34190 3478 1041 307556 229079 19919 209160 206919 70832 13797
cat_boundaries=0 1 3 4 5 6 7 8 9 10 11 12 13 14
cat_threshold=318772136 2419589120 3670540 3359481920 138 3225790464 139 4196352 1 2138112 2151694352 64 139 202211392
is_linear=0
shrinkage=0.05


Tree=24
num_leaves=31
num_cat=10
split_feature=28 33 30 33 30 8 28 33 35 32 27 8 40 30 30 8 30 8 5 24 8 26 31 24 30 30 8 5 8 3
split_gain=1.07088e+06 109383 106672 18578.7 18394.7 14916.2 16253 11676.6 7685.21 7654.94 7588.28 5489.25 5019.4 4667.7 4089.98 4044.82 3829.6 3781.02 5160.21 8943.52 10303.4 3715.95 3280.76 3116.1 2987.78 2899.96 2861.43 9970.11 11494.1 4817.39
threshold=33.004501342773445 4.4603569507598886 374.01199340820318 96.479431152343764 1351.787048339844 0 1.0000000180025095e-35 1.444428622722626 1 10.001285552978517 1.0000000180025095e-35 2 2015.5000000000002 33.004501342773445 471.99200439453131 3 4142.3535156250009 4 96.670000000000016 5 6 1.0000000180025095e-35 21.737103462219242 7 22.013999938964847 175.00099945068362 8 96.670000000000016 9 28.500000000000004
decision_type=10 8 8 10 10 1 10 10 1 10 2 1 2 10 8 1 10 1 2 1 1 2 10 1 8 10 1 2 1 2
left_child=1 7 3 13 26 8 11 10 14 -8 -1 -7 22 -2 -3 -12 -6 18 23 20 -20 -11 -13 -5 -19 -26 -4 -28 -29 -30
right_child=2 5 4 17 16 6 9 -9 -10 21 15 12 -14 -15 -16 -17 -18 24 19 -21 -22 -23 -24 -25 25 -27 27 28 29 -31
leaf_value=-0.040155894210364043 0.00011163144276483565 0.023429525289240947 0.053982774313085541 -0.010649603652704336 0.069312202439469964 -0.015897220592339042 -0.016069201894391118 -0.025382809004890469 0.0075786366309849324 0.0085582812711391242 0.11350793069661108 -0.06608722398871425 0.0005199307473913137 0.018267296323685785 0.093307921021884621 -0.00053751401575328269 0.087343353815371699 0.071446347374982219 0.013847312894869608 0.02648427802066218 -0.19533506185283483 -0.0064069105743931477 -0.13399916265896744 0.030469081396549125 0.028840614394887533 0.038609648538618403 0.045961852315639748 0.052685540556869706 -0.20974623342755894 0.057931616338924387
leaf_weight=773772 50416 4139 219555 5157 120169 8621 186266 172944 59127 59027 932 13801 2567 118868 4239 4438 39034 5518 1098 3595 1265 139537 2042 43208 135288 173316 28000 1167 1040 200
leaf_count=773772 50416 4139 219555 5157 120169 8621 186266 172944 59127 59027 932 13801 2567 118868 4239 4438 39034 5518 1098 3595 1265 139537 2042 43208 135288 173316 28000 1167 1040 200
internal_value=-4.10291e-05 -0.0273287 0.0412106 0.0265715 0.0604493 -0.00784987 -0.0114205 -0.037136 0.0139346 -0.00878825 -0.0397448 -0.0488971 -0.0643049 0.0128602 0.0587226 0.0194836 0.0737337 0.0328712 0.0206761 -0.0232235 -0.0985218 -0.0019582 -0.0748483 0.0260887 0.0349783 0.0343271 0.0519882 0.0375547 -0.0600656 -0.165229
internal_weight=2.37835e+06 1.43145e+06 946894 537729 409165 479366 411861 952086 67505 384830 779142 27031 18410 169284 8378 5370 159203 368445 54323 5958 2363 198564 15843 48365 314122 308604 249962 30407 2407 1240
internal_count=2378346 1431452 946894 537729 409165 479366 411861 952086 67505 384830 779142 27031 18410 169284 8378 5370 159203 368445 54323 5958 2363 198564 15843 48365 314122 308604 249962 30407 2407 1240
cat_boundaries=0 1 3 5 6 8 9 11 12 13 14
cat_threshold=859840424 67109119 522288 3153925 1 1073746344 2153095232 1 138 4202496 1 1 855644072 4196352
is_linear=0
shrinkage=0.05


Tree=25
num_leaves=31
num_cat=14
split_feature=29 33 30 8 32 30 30 32 8 31 8 5 24 24 40 8 8 33 5 8 3 8 29 24 5 8 8 40 8 24
split_gain=968784 106097 87310.7 16016.4 14713.7 13207.2 11104.2 10261.3 6143.66 5933.96 4191.94 19465.5 11696.6 6275.62 4654.46 5829.11 4439.11 3711.71 3566.07 16726 3599.26 3556.64 3166.86 2887.6 5280.5 4428.83 2760.16 4925.94 5678.35 14267.3
threshold=37.007499694824226 4.2945713996887216 455.00050354003912 0 150.28396606445315 2354.2509765625005 10.014500141143801 1.6475155353546145 1 39.860570907592781 2 93.965000000000018 3 4 2015.5000000000002 5 6 85.04178619384767 96.320000000000007 7 28.500000000000004 8 941.14801025390636 9 97.245000000000019 10 11 2013.5000000000002 12 13
decision_type=10 8 10 1 8 10 10 10 1 8 1 2 1 1 2 1 1 10 2 1 2 1 10 1 2 1 1 2 1 1
left_child=1 7 4 8 21 10 9 26 -3 -5 11 13 16 14 15 -4 -13 -10 -8 -20 -21 -2 -12 24 -23 -26 -1 -28 29 -29
right_child=2 3 5 6 -6 -7 18 -9 17 -11 22 12 -14 -15 -16 -17 -18 -19 19 20 -22 23 -24 -25 25 -27 27 28 -30 -31
leaf_value=-0.04107064658012035 0.021793411137079444 0.06907519550327676 -0.2209651931972787 -0.015175346083142471 0.035114801147513058 0.07536130144855982 0.00076733996041860599 -0.024374561339229075 0.0075634539787271388 -0.042544979210850618 0.05054047858471461 -0.19669773557254344 0.046636059707430927 0.058097550026453719 0.026844289927152678 -0.00037130210289703638 0.051969790569571565 0.048838436626774423 0.0016903886814370269 -0.11131403817473794 0.0093379596105664427 0.0011739663200002726 0.062209157631409107 0.015594073620739741 0.0061938332466810984 -0.13619224587257717 -0.041586112997863293 0.041940055427046 -0.033515828998117579 -0.031584012893016135
leaf_weight=356935 208101 5098 494 219411 308045 93952 177127 173216 52084 21768 128230 1553 993 24240 2699 746 204 6082 20795 4861 708 14713 106465 32657 905 1383 170495 9125 211695 23748
leaf_count=356935 208101 5098 494 219411 308045 93952 177127 173216 52084 21768 128230 1553 993 24240 2699 746 204 6082 20795 4861 708 14713 106465 32657 905 1383 170495 9125 211695 23748
internal_value=-4.70202e-06 -0.0254692 0.0399828 -0.00703906 0.0277392 0.0592483 -0.0103879 -0.035373 0.0164983 -0.0176458 0.0535488 0.0361957 -0.0907449 0.0485995 -0.00997188 -0.0901438 -0.167682 0.011878 -0.00178631 -0.0189425 -0.0958043 0.0189246 0.0558316 0.0068961 -0.009811 -0.0804624 -0.0378407 -0.0350612 -0.0305139 -0.0111677
internal_weight=2.37853e+06 1.45315e+06 925380 507934 565804 359576 444670 945214 63264 241179 265624 30929 2750 28179 3939 1240 1757 58166 203491 26364 5569 257759 234695 49658 17001 2288 771998 415063 244568 32873
internal_count=2378528 1453148 925380 507934 565804 359576 444670 945214 63264 241179 265624 30929 2750 28179 3939 1240 1757 58166 203491 26364 5569 257759 234695 49658 17001 2288 771998 415063 244568 32873
cat_boundaries=0 1 2 3 4 5 6 7 9 11 12 13 14 15 16
cat_threshold=1929650088 4264 1078298624 138 1 1074003968 1074003968 7348229 1 1933578016 1 139 2170881 2161248274 1074102272 321
is_linear=0
shrinkage=0.05


Tree=26
num_leaves=31
num_cat=8
split_feature=28 32 32 32 33 8 28 24 33 35 27 8 23 40 32 32 40 32 33 8 24 40 8 3 33 39 40 8 3 23
split_gain=872914 88277.5 87966.8 18678.8 14079.3 11757.3 14341.2 13565.4 9026.14 7085.02 6161.71 6102.56 5803.92 4532.44 4149.66 3610.02 3569.77 3420.61 3206.54 3070.7 4073.5 4713.77 8945.19 8962.31 2901.68 2882.48 4755.81 2833.31 2730.37 2667.09
threshold=32.004999160766609 314.30357360839849 4.3637566566467294 1142.7500000000002 77.01242828369142 0 1.0000000180025095e-35 1 0.89478573203086864 2 1.0000000180025095e-35 3 1.0000000180025095e-35 2015.5000000000002 4358.4948730468759 9.7275133132934588 2014.5000000000002 300.53572082519537 33.29536437988282 4 5 2015.5000000000002 6 16.500000000000004 239.86579132080081 30.500000000000004 2014.5000000000002 7 1.5000000000000002 1.0000000180025095e-35
decision_type=10 10 8 10 8 1 10 1 8 1 2 1 2 2 10 8 2 8 10 1 1 2 1 2 10 2 2 1 2 2
left_child=2 4 8 -3 -2 9 7 16 10 17 -1 -9 15 18 -5 -8 -7 -4 -13 20 21 22 23 25 -17 -6 -27 -12 -19 -10
right_child=1 3 5 14 19 6 12 11 29 -11 27 13 -14 -15 -16 24 -18 28 -20 -21 -22 -23 -24 -25 -26 26 -28 -29 -30 -31
leaf_value=-0.036905384424121127 0.0089792290986499754 0.044524152828777516 0.018417261107351268 0.061698043620036926 -0.19183519830378462 0.068727088455577401 -0.017634741851814711 -0.012665506365391162 -0.028446176836576582 0.0056639778122953999 -0.018521903448886833 -0.061445334445269853 0.0018723605807249169 -0.00082790598997161161 0.080984781748355217 -0.0057949944403589129 -0.047133404860986189 -0.096165610519536038 -0.13798200533230759 0.029934720675109029 0.026708955304956535 0.021422767225193005 0.0074402297718949573 0.044775096121533166 -0.16069019218113756 -0.18502845864110687 0.041467350093825239 0.0637907539679409 0.091409962824171617 -0.016269253792353302
leaf_weight=706713 136514 261053 3590 154036 1377 3445 130894 9447 157071 58568 2020 24575 112009 3002 34071 141789 823 202 1449 300701 44394 11925 6682 840 302 488 440 2151 4479 63013
leaf_count=706713 136514 261053 3590 154036 1377 3445 130894 9447 157071 58568 2020 24575 112009 3002 34071 141789 823 202 1449 300701 44394 11925 6682 840 302 488 440 2151 4479 63013
internal_value=6.83311e-06 0.0370661 -0.0247555 0.0531798 0.0226873 -0.00771461 -0.0107619 -0.0382396 -0.0338084 0.0117864 -0.0365478 -0.0476154 -0.00771163 -0.0589813 0.0651918 -0.011644 0.0462715 0.055075 -0.065712 0.0277885 0.018024 0.000294101 -0.0253447 -0.0947037 -0.00612534 -0.145941 -0.0777092 0.0240407 0.0832967 -0.0249599
internal_weight=2.37806e+06 952521 1.42554e+06 449160 503361 494574 427735 42741 930968 66839 710884 38473 384994 29026 188107 272985 4268 8271 26024 366847 66146 21752 9827 3145 142091 2305 928 4171 4681 220084
internal_count=2378063 952521 1425542 449160 503361 494574 427735 42741 930968 66839 710884 38473 384994 29026 188107 272985 4268 8271 26024 366847 66146 21752 9827 3145 142091 2305 928 4171 4681 220084
cat_boundaries=0 1 2 4 6 8 9 10 12
cat_threshold=859840424 260 67109119 522288 3153925 1 2287312960 1 139 262144 2361024583 1
is_linear=0
shrinkage=0.05


Tree=27
num_leaves=31
num_cat=2
split_feature=33 33 33 33 30 30 27 27 3 12 6 27 30 27 32 30 23 33 30 4 39 5 5 30 32 27 30 27 30 1
split_gain=790925 88653.8 66496.9 17113.8 16446.5 9675.03 6070.84 4079.21 5203.54 13676.2 7803 3654.31 3376.36 2807.41 2806.45 2714.75 2653.65 2646.69 2468.86 3194.31 2466.22 2775.84 2896.78 2350.5 2204.63 2186.59 2060.33 2041.32 2007.67 1893.98
threshold=27.146857261657718 310.13027954101568 2.0135713815689091 1157.8811035156252 73.004501342773452 10.014500141143801 1.5000000000000002 1.0000000180025095e-35 1.5000000000000002 1.0000000180025095e-35 1.0000000180025095e-35 14.500000000000002 5351.8935546875009 1.0000000180025095e-35 0.03637566231191159 497.02900695800787 1.0000000180025095e-35 169.26628875732425 28.000999450683597 0 3.5000000000000004 91.200000000000017 95.580000000000013 1.0000000180025095e-35 117.15798187255861 1.0000000180025095e-35 4.0069999694824228 1.0000000180025095e-35 4.0069999694824228 1
decision_type=10 10 8 10 8 10 2 2 2 2 2 2 8 2 10 8 2 10 10 1 2 2 2 10 10 2 8 2 10 1
left_child=2 4 6 15 18 11 14 8 9 -5 -11 13 -9 24 20 -3 -7 -6 19 25 21 -1 29 -21 26 28 -4 -22 -2 -23
right_child=1 3 5 7 17 16 -8 12 -10 10 -12 -13 -14 -15 -16 -17 -18 -19 -20 23 27 22 -24 -25 -26 -27 -28 -29 -30 -31
leaf_value=-0.040630783205483918 -0.051236040112255937 0.036095390331624171 -0.021107587237916444 0.05914557165891221 0.022140147145390296 -0.0065768861884381432 0.045527166688871475 0.063188739338737518 0.053759473973064478 0.072560983183591263 -0.30719538704573535 0.25120070474222306 0.085954193968324918 0.0014477411240759242 -0.029708116966561456 0.046238249394444035 0.0057730676570757911 0.030722659203368721 0.0120018466168331 0.035580701771434881 -0.036841435565866353 -0.026262692251347391 -0.043956064032266907 0.00095746096074928377 0.075117458453601377 0.034209630391304292 -0.013401858657349131 0.02680976811783016 0.0017303682291332217 0.018070118020901482
leaf_weight=10717 6022 115761 174079 1544 181756 114998 2413 108156 59161 183 514 127 19185 21684 269869 153468 69955 177641 127013 5519 521699 3396 4061 43778 646 1294 172927 1262 2545 8218
leaf_count=10717 6022 115761 174079 1544 181756 114998 2413 108156 59161 183 514 127 19185 21684 269869 153468 69955 177641 127013 5519 521699 3396 4061 43778 646 1294 172927 1262 2545 8218
internal_value=-4.6926e-06 0.0337502 -0.0246218 0.0499704 0.0201342 -0.0112412 -0.0336506 0.0615144 0.0509266 -0.0238512 -0.207528 -0.0159145 0.0666192 -0.016007 -0.0338839 0.0418773 -0.00190574 0.0263823 0.0080723 -0.000364535 -0.0359352 -0.021021 -0.00761212 0.00483334 -0.0170957 -0.0263257 -0.0172676 -0.0366878 -0.0355029 0.00509875
internal_weight=2.37959e+06 1.00354e+06 1.37605e+06 457972 545568 554416 821635 188743 61402 2241 697 369463 127341 369336 819222 269229 184953 359397 186171 59158 549353 26392 15675 49297 347652 9861 347006 522961 8567 11614
internal_count=2379591 1003540 1376051 457972 545568 554416 821635 188743 61402 2241 697 369463 127341 369336 819222 269229 184953 359397 186171 59158 549353 26392 15675 49297 347652 9861 347006 522961 8567 11614
cat_boundaries=0 1 2
cat_threshold=64 3260424
is_linear=0
shrinkage=0.05


Tree=28
num_leaves=31
num_cat=5
split_feature=29 29 33 29 29 33 28 27 28 39 29 27 23 24 39 0 24 17 28 24 32 5 3 5 40 35 29 24 5 31
split_gain=714966 78327.6 61956.2 15393.6 12322.4 10635.7 6273.61 5375.68 4065.31 3958.17 3824.42 3365.26 3289.21 2665 4694.07 5851.71 2637.39 21930.5 4180.94 2521.07 4080.36 8631.37 2879.55 3662.55 7380.39 7286.3 3275.86 2960.82 3101.55 2941.12
threshold=25.013000488281254 310.12350463867193 1.8672856688499453 1087.0864868164065 73.021999359130874 9.1506428718566912 715.08200073242199 1.5000000000000002 254.01200103759768 3.5000000000000004 3323.0000000000005 1.0000000180025095e-35 1.0000000180025095e-35 0 51.500000000000007 1.0000000180025095e-35 1 1.0000000180025095e-35 1.0000000180025095e-35 2 4.9309523105621347 52.135000000000012 17.500000000000004 57.905000000000008 2013.5000000000002 3 12.003499984741213 4 100.10500000000002 1.0000000180025095e-35
decision_type=10 10 8 10 8 10 10 2 8 2 10 2 2 1 2 2 1 2 10 1 10 2 2 2 2 1 8 1 2 10
left_child=2 4 7 16 -2 12 11 19 9 -5 -10 -7 -4 14 -6 -16 17 -3 -18 20 22 -22 23 -1 26 -26 -25 29 -29 -27
right_child=1 3 5 8 13 6 -8 -9 10 -11 -12 -13 -14 -15 15 -17 18 -19 -20 -21 21 -23 -24 24 25 27 -28 28 -30 -31
leaf_value=-0.034485470165987055 0.008749006007936995 0.032044609046391968 -0.01946744551893639 0.05626410534145472 0.019580079271878534 -0.0058481013539315018 0.066685287890791589 0.044433964000797251 0.054261964817339275 -0.11967840073157912 0.069534559716583164 0.011749298665625831 -0.0085114495728522976 0.027844515023461247 0.035895032347978785 -0.20766763848416947 -0.11219024474377617 -0.25697822532915077 0.041570338884969062 -0.03474224399799538 -0.060732609287663691 0.069302186410999472 -0.034895867132659165 -0.036605955315152143 -0.03511278043650546 0.021243839222689312 0.040424973267203408 0.0097330171160395374 -0.027190599523436346 -0.02206621552789928
leaf_weight=73910 178049 21507 241020 647 116736 204953 3225 2289 134333 630 59020 31319 95713 241464 477 509 442 676 237527 456101 2199 3038 152954 50718 19756 20214 1418 9716 13714 4862
leaf_count=73910 178049 21507 241020 647 116736 204953 3225 2289 134333 630 59020 31319 95713 241464 477 509 442 676 237527 456101 2199 3038 152954 50718 19756 20214 1418 9716 13714 4862
internal_value=1.95926e-05 0.0324312 -0.02316 0.0477015 0.0195044 -0.0106246 -0.00256986 -0.0320678 0.0583369 -0.0305618 0.0589242 -0.00351544 -0.0163533 0.0248359 0.0186606 -0.0899217 0.0397445 0.0232153 0.0412825 -0.0322845 -0.0291024 0.0146998 -0.0297639 -0.0257239 -0.0203452 -0.00952612 -0.0345101 0.000902629 -0.0118742 0.0128408
internal_weight=2.37914e+06 992017 1.38712e+06 454782 537235 576230 239497 810889 194630 1277 193353 236272 336733 359186 117722 986 260152 22183 237969 808600 352499 5237 347262 194308 120398 68262 52136 48506 23430 25076
internal_count=2379136 992017 1387119 454782 537235 576230 239497 810889 194630 1277 193353 236272 336733 359186 117722 986 260152 22183 237969 808600 352499 5237 347262 194308 120398 68262 52136 48506 23430 25076
cat_boundaries=0 1 2 3 5 6
cat_threshold=139 1 357 2427977728 524804 321
is_linear=0
shrinkage=0.05


Tree=29
num_leaves=31
num_cat=9
split_feature=28 32 32 33 8 28 24 32 33 33 8 27 23 3 40 1 5 8 4 32 33 2 32 31 24 8 5 39 0 3
split_gain=644640 64867.1 64702.3 17176.7 9597.67 12179 11400.5 7111.1 6264.08 5397.57 5266.98 4900.05 4734.46 3847.23 3699.65 3690.72 3262.97 3201.38 3645.25 3110.8 3038.81 2903.59 2742.16 2594.71 2569.38 7224.18 15895.6 4626.92 5605.98 3193.37
threshold=32.004999160766609 599.47451782226574 4.2182540893554696 129.0549240112305 0 1.0000000180025095e-35 1 2566.267944335938 0.72785714268684398 254.88214874267581 2 1.0000000180025095e-35 1.0000000180025095e-35 1.5000000000000002 2015.5000000000002 3 91.495000000000019 4 5 256.39752197265631 32.147928237915046 6 16.571053504943851 243.07531738281253 7 8 96.670000000000016 51.500000000000007 1.0000000180025095e-35 22.500000000000004
decision_type=10 10 8 8 1 10 1 10 10 8 1 2 2 2 2 1 2 1 1 10 10 1 10 10 1 1 2 2 2 2
left_child=2 3 8 17 9 6 16 24 11 -4 -8 -1 22 -11 20 -15 -6 18 -2 -5 -12 -17 -7 -24 25 26 -3 -27 -29 -28
right_child=1 7 4 19 5 12 10 -9 -10 13 14 -13 -14 15 -16 21 -18 -19 -20 -21 -22 -23 23 -25 -26 27 29 28 -30 -31
leaf_value=-0.03182987168737799 0.015595707711905544 0.021756204228052994 0.003838366553553782 0.024783423743285803 -0.023555063478492171 -0.013236716849973275 -0.01104507327604444 0.062796420449800106 -0.02198425131509989 -0.085027792954940756 -0.056892805269173889 0.02356275429710768 0.0017928721333063261 -0.054116698532618281 -0.0016571202779746162 0.082774736949381145 0.057544952358742088 0.015575010001314879 -0.0092128270727142823 0.033563236733387465 -0.13204541877052731 0.031640349706209624 -0.0010476688050408533 -0.10833837052284163 0.049774621007505633 0.045239901808363008 -0.20996599884123893 0.061515920167046836 -0.27482531828880313 0.040129025688800384
leaf_weight=689621 27444 7623 54252 203281 1829 205732 8953 87519 229813 588 24493 4015 114272 854 2920 4827 3849 181612 32131 200337 1423 6630 71358 567 146656 64077 998 245 249 146
leaf_count=689621 27444 7623 54252 203281 1829 205732 8953 87519 229813 588 24493 4015 114272 854 2920 4827 3849 181612 32131 200337 1423 6630 71358 567 146656 64077 998 245 249 146
internal_value=-9.04308e-06 0.0318448 -0.0212819 0.022833 -0.00684449 -0.009558 -0.0346685 0.050741 -0.0291388 0.0107492 -0.0445877 -0.0315092 -0.00677327 0.0398214 -0.0549938 0.0457908 0.0313662 0.0122761 0.00221632 0.0291414 -0.0610242 0.0532427 -0.0102987 -0.00189496 0.0459448 0.0382735 -0.00432761 0.0440573 -0.108229 -0.178041
internal_weight=2.37831e+06 952318 1.426e+06 644805 502547 435396 43467 307513 923449 67151 37789 693636 391929 12899 28836 12311 5678 241187 59575 403618 25916 11457 277657 71925 219994 73338 8767 64571 494 1144
